<?xml version="1.0"?>
<opencv_storage>
<stage13>
  <maxWeakCount>7</maxWeakCount>
  <stageThreshold>-1.4632576704025269e+00</stageThreshold>
  <weakClassifiers>
    <_>
      <internalNodes>
        0 -1 46907 -6.5149525180459023e-03</internalNodes>
      <leafValues>
        2.0833332836627960e-01 -6.9444441795349121e-01</leafValues></_>
    <_>
      <internalNodes>
        0 -1 19801 8.0000108573585749e-04</internalNodes>
      <leafValues>
        1.4702795445919037e-01 -8.9019781351089478e-01</leafValues></_>
    <_>
      <internalNodes>
        0 -1 10405 -3.9016671478748322e-02</internalNodes>
      <leafValues>
        -5.1162487268447876e-01 3.6438244581222534e-01</leafValues></_>
    <_>
      <internalNodes>
        0 -1 287636 -9.9854599684476852e-03</internalNodes>
      <leafValues>
        1.7399694025516510e-01 -8.4550219774246216e-01</leafValues></_>
    <_>
      <internalNodes>
        0 -1 269401 -1.2169808894395828e-01</internalNodes>
      <leafValues>
        -8.7691861391067505e-01 2.3661863803863525e-01</leafValues></_>
    <_>
      <internalNodes>
        0 -1 6820 -1.3309530913829803e-04</internalNodes>
      <leafValues>
        -8.8340473175048828e-01 1.4487043023109436e-01</leafValues></_>
    <_>
      <internalNodes>
        0 -1 23735 -4.1494765318930149e-03</internalNodes>
      <leafValues>
        -8.8836109638214111e-01 1.5383486449718475e-01</leafValues></_></weakClassifiers></stage13>
</opencv_storage>
