<?xml version="1.0"?>
<opencv_storage>
<stage17>
  <maxWeakCount>7</maxWeakCount>
  <stageThreshold>-1.3496577739715576e+00</stageThreshold>
  <weakClassifiers>
    <_>
      <internalNodes>
        0 -1 126674 1.6658522188663483e-02</internalNodes>
      <leafValues>
        -5.9745764732360840e-01 6.4062500000000000e-01</leafValues></_>
    <_>
      <internalNodes>
        0 -1 126358 -2.5346642732620239e-01</internalNodes>
      <leafValues>
        2.8086420893669128e-01 -7.4329268932342529e-01</leafValues></_>
    <_>
      <internalNodes>
        0 -1 93883 -1.2341521680355072e-02</internalNodes>
      <leafValues>
        4.9806857109069824e-01 -3.9483374357223511e-01</leafValues></_>
    <_>
      <internalNodes>
        0 -1 33610 -1.3134565204381943e-02</internalNodes>
      <leafValues>
        5.9086143970489502e-01 -3.5014468431472778e-01</leafValues></_>
    <_>
      <internalNodes>
        0 -1 124017 -1.0199501179158688e-02</internalNodes>
      <leafValues>
        6.6682302951812744e-01 -2.8542971611022949e-01</leafValues></_>
    <_>
      <internalNodes>
        0 -1 234326 -3.2693524844944477e-03</internalNodes>
      <leafValues>
        8.3642554283142090e-01 -2.7033632993698120e-01</leafValues></_>
    <_>
      <internalNodes>
        0 -1 7183 -9.6266512991860509e-04</internalNodes>
      <leafValues>
        3.4214821457862854e-01 -5.4207134246826172e-01</leafValues></_></weakClassifiers></stage17>
</opencv_storage>
