<?xml version="1.0"?>
<opencv_storage>
<stage11>
  <maxWeakCount>8</maxWeakCount>
  <stageThreshold>-1.3679006099700928e+00</stageThreshold>
  <weakClassifiers>
    <_>
      <internalNodes>
        0 -1 4177 -2.8372913599014282e-01</internalNodes>
      <leafValues>
        2.5957447290420532e-01 -7.1506851911544800e-01</leafValues></_>
    <_>
      <internalNodes>
        0 -1 109624 -1.1062189936637878e-02</internalNodes>
      <leafValues>
        6.6911023855209351e-01 -3.8317623734474182e-01</leafValues></_>
    <_>
      <internalNodes>
        0 -1 77 -4.9762912094593048e-02</internalNodes>
      <leafValues>
        2.3933109641075134e-01 -8.8217169046401978e-01</leafValues></_>
    <_>
      <internalNodes>
        0 -1 1516 -5.7663712650537491e-02</internalNodes>
      <leafValues>
        -8.4084045886993408e-01 2.9750216007232666e-01</leafValues></_>
    <_>
      <internalNodes>
        0 -1 126391 -6.9885840639472008e-03</internalNodes>
      <leafValues>
        1.8596239387989044e-01 -8.3950603008270264e-01</leafValues></_>
    <_>
      <internalNodes>
        0 -1 156525 -2.9069907031953335e-03</internalNodes>
      <leafValues>
        -6.3463187217712402e-01 2.5499770045280457e-01</leafValues></_>
    <_>
      <internalNodes>
        0 -1 23773 -3.0398070812225342e-02</internalNodes>
      <leafValues>
        2.8524601459503174e-01 -7.9617011547088623e-01</leafValues></_>
    <_>
      <internalNodes>
        0 -1 229480 1.7626175656914711e-02</internalNodes>
      <leafValues>
        -3.0441921949386597e-01 9.1585749387741089e-01</leafValues></_></weakClassifiers></stage11>
</opencv_storage>
