<?xml version="1.0"?>
<opencv_storage>
<stage12>
  <maxWeakCount>6</maxWeakCount>
  <stageThreshold>-1.1162065267562866e+00</stageThreshold>
  <weakClassifiers>
    <_>
      <internalNodes>
        0 -1 143929 -1.1259842664003372e-02</internalNodes>
      <leafValues>
        4.6853145956993103e-01 -5.8424508571624756e-01</leafValues></_>
    <_>
      <internalNodes>
        0 -1 1512 -5.8102905750274658e-02</internalNodes>
      <leafValues>
        -1. 1.6515743732452393e-01</leafValues></_>
    <_>
      <internalNodes>
        0 -1 286896 2.8593640308827162e-04</internalNodes>
      <leafValues>
        1.8249398469924927e-01 -8.1719100475311279e-01</leafValues></_>
    <_>
      <internalNodes>
        0 -1 176497 -1.0216696560382843e-01</internalNodes>
      <leafValues>
        1.9466301798820496e-01 -8.6415642499923706e-01</leafValues></_>
    <_>
      <internalNodes>
        0 -1 191264 -3.9128765463829041e-02</internalNodes>
      <leafValues>
        7.9203730821609497e-01 -2.7587056159973145e-01</leafValues></_>
    <_>
      <internalNodes>
        0 -1 106645 2.8077787719666958e-03</internalNodes>
      <leafValues>
        -7.2098833322525024e-01 2.6041412353515625e-01</leafValues></_></weakClassifiers></stage12>
</opencv_storage>
