<?xml version="1.0"?>
<opencv_storage>
<stage15>
  <maxWeakCount>5</maxWeakCount>
  <stageThreshold>-6.6801452636718750e-01</stageThreshold>
  <weakClassifiers>
    <_>
      <internalNodes>
        0 -1 114606 -4.1628003120422363e-02</internalNodes>
      <leafValues>
        9.0697675943374634e-01 -5.4085600376129150e-01</leafValues></_>
    <_>
      <internalNodes>
        0 -1 11057 1.5530266682617366e-04</internalNodes>
      <leafValues>
        2.9491671919822693e-01 -7.7889716625213623e-01</leafValues></_>
    <_>
      <internalNodes>
        0 -1 79071 5.5995918810367584e-03</internalNodes>
      <leafValues>
        -2.8759285807609558e-01 8.6531138420104980e-01</leafValues></_>
    <_>
      <internalNodes>
        0 -1 1109 6.1196065507829189e-04</internalNodes>
      <leafValues>
        2.6361602544784546e-01 -9.7508132457733154e-01</leafValues></_>
    <_>
      <internalNodes>
        0 -1 62988 3.8099782541394234e-03</internalNodes>
      <leafValues>
        -3.9809834957122803e-01 7.3592889308929443e-01</leafValues></_></weakClassifiers></stage15>
</opencv_storage>
