<?xml version="1.0"?>
<opencv_storage>
<cascade>
  <stageType>BOOST</stageType>
  <featureType>HAAR</featureType>
  <height>32</height>
  <width>24</width>
  <stageParams>
    <boostType>GAB</boostType>
    <minHitRate>9.9500000476837158e-01</minHitRate>
    <maxFalseAlarm>5.0000000000000000e-01</maxFalseAlarm>
    <weightTrimRate>9.4999999999999996e-01</weightTrimRate>
    <maxDepth>1</maxDepth>
    <maxWeakCount>100</maxWeakCount></stageParams>
  <featureParams>
    <maxCatCount>0</maxCatCount>
    <featSize>1</featSize>
    <mode>BASIC</mode></featureParams>
  <stageNum>15</stageNum>
  <stages>
    <!-- stage 0 -->
    <_>
      <maxWeakCount>2</maxWeakCount>
      <stageThreshold>-2.8755149245262146e-01</stageThreshold>
      <weakClassifiers>
        <_>
          <internalNodes>
            0 -1 30 -6.4956541173160076e-03</internalNodes>
          <leafValues>
            5.4751133918762207e-01 -9.4357365369796753e-01</leafValues></_>
        <_>
          <internalNodes>
            0 -1 62 -6.0648205690085888e-03</internalNodes>
          <leafValues>
            -8.3506280183792114e-01 6.7404794692993164e-01</leafValues></_></weakClassifiers></_>
    <!-- stage 1 -->
    <_>
      <maxWeakCount>5</maxWeakCount>
      <stageThreshold>-1.2723610401153564e+00</stageThreshold>
      <weakClassifiers>
        <_>
          <internalNodes>
            0 -1 42 -4.2484674602746964e-02</internalNodes>
          <leafValues>
            -9.1950464248657227e-01 5.3917050361633301e-01</leafValues></_>
        <_>
          <internalNodes>
            0 -1 5 4.8739261925220490e-02</internalNodes>
          <leafValues>
            -5.7445061206817627e-01 9.3742698431015015e-01</leafValues></_>
        <_>
          <internalNodes>
            0 -1 33 -8.7751656770706177e-02</internalNodes>
          <leafValues>
            5.0574547052383423e-01 -9.2654371261596680e-01</leafValues></_>
        <_>
          <internalNodes>
            0 -1 55 1.0236830450594425e-02</internalNodes>
          <leafValues>
            -7.7055847644805908e-01 6.5903413295745850e-01</leafValues></_>
        <_>
          <internalNodes>
            0 -1 23 -2.4918097257614136e-01</internalNodes>
          <leafValues>
            -9.8980408906936646e-01 4.8640722036361694e-01</leafValues></_></weakClassifiers></_>
    <!-- stage 2 -->
    <_>
      <maxWeakCount>4</maxWeakCount>
      <stageThreshold>-1.0155737400054932e+00</stageThreshold>
      <weakClassifiers>
        <_>
          <internalNodes>
            0 -1 6 -3.9810677990317345e-03</internalNodes>
          <leafValues>
            2.6739928126335144e-01 -9.4756555557250977e-01</leafValues></_>
        <_>
          <internalNodes>
            0 -1 14 -8.3901844918727875e-03</internalNodes>
          <leafValues>
            4.9647426605224609e-01 -8.7579786777496338e-01</leafValues></_>
        <_>
          <internalNodes>
            0 -1 53 -2.5838261935859919e-03</internalNodes>
          <leafValues>
            3.7291264533996582e-01 -9.1447675228118896e-01</leafValues></_>
        <_>
          <internalNodes>
            0 -1 58 2.4470959324389696e-03</internalNodes>
          <leafValues>
            -7.4164128303527832e-01 5.0730156898498535e-01</leafValues></_></weakClassifiers></_>
    <!-- stage 3 -->
    <_>
      <maxWeakCount>6</maxWeakCount>
      <stageThreshold>-1.2867342233657837e+00</stageThreshold>
      <weakClassifiers>
        <_>
          <internalNodes>
            0 -1 32 -2.6749473810195923e-01</internalNodes>
          <leafValues>
            2.1771217882633209e-01 -8.8847583532333374e-01</leafValues></_>
        <_>
          <internalNodes>
            0 -1 41 1.3093372806906700e-02</internalNodes>
          <leafValues>
            -6.8673509359359741e-01 4.6180829405784607e-01</leafValues></_>
        <_>
          <internalNodes>
            0 -1 26 -3.2522841356694698e-03</internalNodes>
          <leafValues>
            4.3087822198867798e-01 -7.4364024400711060e-01</leafValues></_>
        <_>
          <internalNodes>
            0 -1 1 -1.0265232063829899e-02</internalNodes>
          <leafValues>
            3.9662986993789673e-01 -8.3566361665725708e-01</leafValues></_>
        <_>
          <internalNodes>
            0 -1 51 4.6459957957267761e-03</internalNodes>
          <leafValues>
            -7.5591784715652466e-01 3.5108509659767151e-01</leafValues></_>
        <_>
          <internalNodes>
            0 -1 20 -1.4374613761901855e-01</internalNodes>
          <leafValues>
            -8.2178604602813721e-01 3.8170859217643738e-01</leafValues></_></weakClassifiers></_>
    <!-- stage 4 -->
    <_>
      <maxWeakCount>4</maxWeakCount>
      <stageThreshold>-4.7604903578758240e-01</stageThreshold>
      <weakClassifiers>
        <_>
          <internalNodes>
            0 -1 31 -1.0499479249119759e-02</internalNodes>
          <leafValues>
            7.7777779102325439e-01 -6.4066195487976074e-01</leafValues></_>
        <_>
          <internalNodes>
            0 -1 56 9.7700220067054033e-04</internalNodes>
          <leafValues>
            -8.8682967424392700e-01 3.9980217814445496e-01</leafValues></_>
        <_>
          <internalNodes>
            0 -1 0 -3.1471934169530869e-02</internalNodes>
          <leafValues>
            2.9223635792732239e-01 -9.3688493967056274e-01</leafValues></_>
        <_>
          <internalNodes>
            0 -1 43 -1.5372252091765404e-02</internalNodes>
          <leafValues>
            7.5920623540878296e-01 -4.7223466634750366e-01</leafValues></_></weakClassifiers></_>
    <!-- stage 5 -->
    <_>
      <maxWeakCount>3</maxWeakCount>
      <stageThreshold>-4.9469831585884094e-01</stageThreshold>
      <weakClassifiers>
        <_>
          <internalNodes>
            0 -1 17 -3.1717127561569214e-01</internalNodes>
          <leafValues>
            3.0508473515510559e-01 -8.2894736528396606e-01</leafValues></_>
        <_>
          <internalNodes>
            0 -1 27 -1.6329759731888771e-02</internalNodes>
          <leafValues>
            -9.5557659864425659e-01 2.4659787118434906e-01</leafValues></_>
        <_>
          <internalNodes>
            0 -1 65 -3.8689472712576389e-03</internalNodes>
          <leafValues>
            1.5579354763031006e-01 -1.</leafValues></_></weakClassifiers></_>
    <!-- stage 6 -->
    <_>
      <maxWeakCount>6</maxWeakCount>
      <stageThreshold>-1.4098335504531860e+00</stageThreshold>
      <weakClassifiers>
        <_>
          <internalNodes>
            0 -1 21 -1.3328755274415016e-02</internalNodes>
          <leafValues>
            2.2400000691413879e-01 -8.1379312276840210e-01</leafValues></_>
        <_>
          <internalNodes>
            0 -1 24 6.5885884687304497e-03</internalNodes>
          <leafValues>
            -7.5474238395690918e-01 3.0874150991439819e-01</leafValues></_>
        <_>
          <internalNodes>
            0 -1 29 -2.0209939777851105e-01</internalNodes>
          <leafValues>
            -8.9206951856613159e-01 2.9485401511192322e-01</leafValues></_>
        <_>
          <internalNodes>
            0 -1 39 -7.5757596641778946e-03</internalNodes>
          <leafValues>
            5.7498174905776978e-01 -5.3652083873748779e-01</leafValues></_>
        <_>
          <internalNodes>
            0 -1 57 -8.9451670646667480e-03</internalNodes>
          <leafValues>
            -1. 2.3415364325046539e-01</leafValues></_>
        <_>
          <internalNodes>
            0 -1 74 -1.0229799896478653e-02</internalNodes>
          <leafValues>
            3.1838104128837585e-01 -8.7157797813415527e-01</leafValues></_></weakClassifiers></_>
    <!-- stage 7 -->
    <_>
      <maxWeakCount>4</maxWeakCount>
      <stageThreshold>-7.1972191333770752e-01</stageThreshold>
      <weakClassifiers>
        <_>
          <internalNodes>
            0 -1 37 -1.8147921189665794e-02</internalNodes>
          <leafValues>
            7.0873785018920898e-01 -5.7894736528396606e-01</leafValues></_>
        <_>
          <internalNodes>
            0 -1 45 1.4155076816678047e-02</internalNodes>
          <leafValues>
            -7.0366162061691284e-01 4.3416520953178406e-01</leafValues></_>
        <_>
          <internalNodes>
            0 -1 12 -1.4136783778667450e-02</internalNodes>
          <leafValues>
            3.5312333703041077e-01 -7.2511082887649536e-01</leafValues></_>
        <_>
          <internalNodes>
            0 -1 15 -1.7322806641459465e-02</internalNodes>
          <leafValues>
            2.1857436001300812e-01 -9.2806309461593628e-01</leafValues></_></weakClassifiers></_>
    <!-- stage 8 -->
    <_>
      <maxWeakCount>6</maxWeakCount>
      <stageThreshold>-1.2725616693496704e+00</stageThreshold>
      <weakClassifiers>
        <_>
          <internalNodes>
            0 -1 28 -1.0869093239307404e-02</internalNodes>
          <leafValues>
            6.3043481111526489e-01 -5.3125000000000000e-01</leafValues></_>
        <_>
          <internalNodes>
            0 -1 16 -4.0319543331861496e-02</internalNodes>
          <leafValues>
            -9.4797164201736450e-01 2.4798694252967834e-01</leafValues></_>
        <_>
          <internalNodes>
            0 -1 64 -3.0564272776246071e-02</internalNodes>
          <leafValues>
            2.8045418858528137e-01 -8.7028086185455322e-01</leafValues></_>
        <_>
          <internalNodes>
            0 -1 36 -4.3859012424945831e-02</internalNodes>
          <leafValues>
            -7.0090734958648682e-01 2.5872626900672913e-01</leafValues></_>
        <_>
          <internalNodes>
            0 -1 3 -2.4568499997258186e-02</internalNodes>
          <leafValues>
            2.4685353040695190e-01 -7.0493048429489136e-01</leafValues></_>
        <_>
          <internalNodes>
            0 -1 60 -2.6735712308436632e-03</internalNodes>
          <leafValues>
            3.2718640565872192e-01 -5.5941766500473022e-01</leafValues></_></weakClassifiers></_>
    <!-- stage 9 -->
    <_>
      <maxWeakCount>8</maxWeakCount>
      <stageThreshold>-1.2205985784530640e+00</stageThreshold>
      <weakClassifiers>
        <_>
          <internalNodes>
            0 -1 40 -6.7901305854320526e-02</internalNodes>
          <leafValues>
            8.7500000000000000e-01 -4.9579831957817078e-01</leafValues></_>
        <_>
          <internalNodes>
            0 -1 75 -1.5212360303848982e-03</internalNodes>
          <leafValues>
            2.0468461513519287e-01 -9.6023482084274292e-01</leafValues></_>
        <_>
          <internalNodes>
            0 -1 68 -1.2745013460516930e-02</internalNodes>
          <leafValues>
            -6.8319493532180786e-01 2.7410006523132324e-01</leafValues></_>
        <_>
          <internalNodes>
            0 -1 35 -1.0257591493427753e-03</internalNodes>
          <leafValues>
            4.0157008171081543e-01 -5.2279144525527954e-01</leafValues></_>
        <_>
          <internalNodes>
            0 -1 2 -6.7953937686979771e-03</internalNodes>
          <leafValues>
            2.9519468545913696e-01 -7.7176123857498169e-01</leafValues></_>
        <_>
          <internalNodes>
            0 -1 71 -3.9271713467314839e-04</internalNodes>
          <leafValues>
            -8.0646812915802002e-01 2.6133278012275696e-01</leafValues></_>
        <_>
          <internalNodes>
            0 -1 34 -9.4812299357727170e-04</internalNodes>
          <leafValues>
            5.7852619886398315e-01 -3.6702269315719604e-01</leafValues></_>
        <_>
          <internalNodes>
            0 -1 48 -5.0345766358077526e-03</internalNodes>
          <leafValues>
            -7.4715226888656616e-01 2.9462108016014099e-01</leafValues></_></weakClassifiers></_>
    <!-- stage 10 -->
    <_>
      <maxWeakCount>5</maxWeakCount>
      <stageThreshold>-1.1424679756164551e+00</stageThreshold>
      <weakClassifiers>
        <_>
          <internalNodes>
            0 -1 46 -3.7297207862138748e-02</internalNodes>
          <leafValues>
            4.0425533056259155e-01 -5.9398496150970459e-01</leafValues></_>
        <_>
          <internalNodes>
            0 -1 67 -1.7960018012672663e-03</internalNodes>
          <leafValues>
            2.6724350452423096e-01 -7.0874530076980591e-01</leafValues></_>
        <_>
          <internalNodes>
            0 -1 59 -5.6338305585086346e-03</internalNodes>
          <leafValues>
            4.6868827939033508e-01 -4.5291215181350708e-01</leafValues></_>
        <_>
          <internalNodes>
            0 -1 52 1.3618755619972944e-03</internalNodes>
          <leafValues>
            -8.5036855936050415e-01 2.5227278470993042e-01</leafValues></_>
        <_>
          <internalNodes>
            0 -1 38 -2.7986037731170654e-01</internalNodes>
          <leafValues>
            3.8461193442344666e-01 -5.6069880723953247e-01</leafValues></_></weakClassifiers></_>
    <!-- stage 11 -->
    <_>
      <maxWeakCount>5</maxWeakCount>
      <stageThreshold>-9.9999576807022095e-01</stageThreshold>
      <weakClassifiers>
        <_>
          <internalNodes>
            0 -1 19 -4.9728960730135441e-03</internalNodes>
          <leafValues>
            2.1153846383094788e-01 -6.7469877004623413e-01</leafValues></_>
        <_>
          <internalNodes>
            0 -1 47 -7.7245931606739759e-04</internalNodes>
          <leafValues>
            5.7380437850952148e-01 -4.1041773557662964e-01</leafValues></_>
        <_>
          <internalNodes>
            0 -1 8 -4.6769082546234131e-02</internalNodes>
          <leafValues>
            -9.4583237171173096e-01 2.7012857794761658e-01</leafValues></_>
        <_>
          <internalNodes>
            0 -1 63 1.6886754892766476e-03</internalNodes>
          <leafValues>
            -3.7579500675201416e-01 5.2305883169174194e-01</leafValues></_>
        <_>
          <internalNodes>
            0 -1 9 -2.7663286775350571e-02</internalNodes>
          <leafValues>
            1.9078722596168518e-01 -9.4220161437988281e-01</leafValues></_></weakClassifiers></_>
    <!-- stage 12 -->
    <_>
      <maxWeakCount>5</maxWeakCount>
      <stageThreshold>-1.0037513971328735e+00</stageThreshold>
      <weakClassifiers>
        <_>
          <internalNodes>
            0 -1 11 6.4015509560704231e-03</internalNodes>
          <leafValues>
            -4.7628864645957947e-01 9.2727273702621460e-01</leafValues></_>
        <_>
          <internalNodes>
            0 -1 49 2.5328252464532852e-02</internalNodes>
          <leafValues>
            -3.6490404605865479e-01 6.1239331960678101e-01</leafValues></_>
        <_>
          <internalNodes>
            0 -1 73 -2.6387269608676434e-03</internalNodes>
          <leafValues>
            2.9932248592376709e-01 -8.7590247392654419e-01</leafValues></_>
        <_>
          <internalNodes>
            0 -1 44 7.3716393671929836e-03</internalNodes>
          <leafValues>
            -5.7221925258636475e-01 3.9657896757125854e-01</leafValues></_>
        <_>
          <internalNodes>
            0 -1 54 -1.3678757473826408e-02</internalNodes>
          <leafValues>
            -7.3370701074600220e-01 3.0826571583747864e-01</leafValues></_></weakClassifiers></_>
    <!-- stage 13 -->
    <_>
      <maxWeakCount>6</maxWeakCount>
      <stageThreshold>-1.1309442520141602e+00</stageThreshold>
      <weakClassifiers>
        <_>
          <internalNodes>
            0 -1 4 4.5599922537803650e-02</internalNodes>
          <leafValues>
            -5.0218337774276733e-01 6.0975611209869385e-01</leafValues></_>
        <_>
          <internalNodes>
            0 -1 69 -2.2944546071812510e-04</internalNodes>
          <leafValues>
            -8.3448314666748047e-01 2.3016706109046936e-01</leafValues></_>
        <_>
          <internalNodes>
            0 -1 13 2.4217807222157717e-03</internalNodes>
          <leafValues>
            2.2909946739673615e-01 -7.5374782085418701e-01</leafValues></_>
        <_>
          <internalNodes>
            0 -1 61 -8.0359742045402527e-02</internalNodes>
          <leafValues>
            -8.7325555086135864e-01 1.9138441979885101e-01</leafValues></_>
        <_>
          <internalNodes>
            0 -1 66 -1.4503408223390579e-02</internalNodes>
          <leafValues>
            2.3515422642230988e-01 -8.7327700853347778e-01</leafValues></_>
        <_>
          <internalNodes>
            0 -1 50 7.8510213643312454e-03</internalNodes>
          <leafValues>
            -4.4992604851722717e-01 4.2411375045776367e-01</leafValues></_></weakClassifiers></_>
    <!-- stage 14 -->
    <_>
      <maxWeakCount>7</maxWeakCount>
      <stageThreshold>-1.1862424612045288e+00</stageThreshold>
      <weakClassifiers>
        <_>
          <internalNodes>
            0 -1 7 3.5113427788019180e-02</internalNodes>
          <leafValues>
            -4.7717842459678650e-01 8.6206895112991333e-01</leafValues></_>
        <_>
          <internalNodes>
            0 -1 70 1.5579105820506811e-04</internalNodes>
          <leafValues>
            3.2663056254386902e-01 -6.8969821929931641e-01</leafValues></_>
        <_>
          <internalNodes>
            0 -1 18 -3.9929030463099480e-03</internalNodes>
          <leafValues>
            2.2917406260967255e-01 -8.1742727756500244e-01</leafValues></_>
        <_>
          <internalNodes>
            0 -1 10 -9.0153393102809787e-04</internalNodes>
          <leafValues>
            -4.9005267024040222e-01 3.8598263263702393e-01</leafValues></_>
        <_>
          <internalNodes>
            0 -1 22 7.9355165362358093e-03</internalNodes>
          <leafValues>
            -5.6239765882492065e-01 3.8130316138267517e-01</leafValues></_>
        <_>
          <internalNodes>
            0 -1 72 2.2883836936671287e-04</internalNodes>
          <leafValues>
            3.3146920800209045e-01 -5.6607270240783691e-01</leafValues></_>
        <_>
          <internalNodes>
            0 -1 25 -9.7359903156757355e-03</internalNodes>
          <leafValues>
            5.5981218814849854e-01 -3.7332147359848022e-01</leafValues></_></weakClassifiers></_></stages>
  <features>
    <_>
      <rects>
        <_>
          0 0 3 9 -1.</_>
        <_>
          1 0 1 9 2.</_></rects>
      <tilted>0</tilted></_>
    <_>
      <rects>
        <_>
          0 0 1 32 -1.</_>
        <_>
          0 16 1 16 2.</_></rects>
      <tilted>0</tilted></_>
    <_>
      <rects>
        <_>
          0 0 18 4 -1.</_>
        <_>
          0 2 18 2 2.</_></rects>
      <tilted>0</tilted></_>
    <_>
      <rects>
        <_>
          0 1 1 24 -1.</_>
        <_>
          0 9 1 8 2.</_></rects>
      <tilted>0</tilted></_>
    <_>
      <rects>
        <_>
          0 1 14 6 -1.</_>
        <_>
          0 1 7 3 2.</_>
        <_>
          7 4 7 3 2.</_></rects>
      <tilted>0</tilted></_>
    <_>
      <rects>
        <_>
          0 1 14 10 -1.</_>
        <_>
          0 1 7 5 2.</_>
        <_>
          7 6 7 5 2.</_></rects>
      <tilted>0</tilted></_>
    <_>
      <rects>
        <_>
          0 2 3 1 -1.</_>
        <_>
          1 2 1 1 2.</_></rects>
      <tilted>0</tilted></_>
    <_>
      <rects>
        <_>
          0 2 16 4 -1.</_>
        <_>
          0 2 8 2 2.</_>
        <_>
          8 4 8 2 2.</_></rects>
      <tilted>0</tilted></_>
    <_>
      <rects>
        <_>
          0 3 3 10 -1.</_>
        <_>
          1 3 1 10 2.</_></rects>
      <tilted>0</tilted></_>
    <_>
      <rects>
        <_>
          0 3 11 3 -1.</_>
        <_>
          0 4 11 1 2.</_></rects>
      <tilted>0</tilted></_>
    <_>
      <rects>
        <_>
          0 4 7 2 -1.</_>
        <_>
          0 5 7 1 2.</_></rects>
      <tilted>0</tilted></_>
    <_>
      <rects>
        <_>
          0 4 18 2 -1.</_>
        <_>
          0 5 18 1 2.</_></rects>
      <tilted>0</tilted></_>
    <_>
      <rects>
        <_>
          0 14 20 16 -1.</_>
        <_>
          10 14 10 16 2.</_></rects>
      <tilted>0</tilted></_>
    <_>
      <rects>
        <_>
          0 15 4 14 -1.</_>
        <_>
          0 15 2 7 2.</_>
        <_>
          2 22 2 7 2.</_></rects>
      <tilted>0</tilted></_>
    <_>
      <rects>
        <_>
          0 16 14 4 -1.</_>
        <_>
          7 16 7 4 2.</_></rects>
      <tilted>0</tilted></_>
    <_>
      <rects>
        <_>
          0 21 4 9 -1.</_>
        <_>
          0 24 4 3 2.</_></rects>
      <tilted>0</tilted></_>
    <_>
      <rects>
        <_>
          0 24 6 8 -1.</_>
        <_>
          2 24 2 8 2.</_></rects>
      <tilted>0</tilted></_>
    <_>
      <rects>
        <_>
          1 0 23 18 -1.</_>
        <_>
          1 9 23 9 2.</_></rects>
      <tilted>0</tilted></_>
    <_>
      <rects>
        <_>
          1 2 3 1 -1.</_>
        <_>
          2 2 1 1 2.</_></rects>
      <tilted>0</tilted></_>
    <_>
      <rects>
        <_>
          1 2 14 1 -1.</_>
        <_>
          8 2 7 1 2.</_></rects>
      <tilted>0</tilted></_>
    <_>
      <rects>
        <_>
          1 5 9 15 -1.</_>
        <_>
          4 5 3 15 2.</_></rects>
      <tilted>0</tilted></_>
    <_>
      <rects>
        <_>
          1 16 14 4 -1.</_>
        <_>
          8 16 7 4 2.</_></rects>
      <tilted>0</tilted></_>
    <_>
      <rects>
        <_>
          1 26 19 6 -1.</_>
        <_>
          1 29 19 3 2.</_></rects>
      <tilted>0</tilted></_>
    <_>
      <rects>
        <_>
          2 4 17 12 -1.</_>
        <_>
          2 8 17 4 2.</_></rects>
      <tilted>0</tilted></_>
    <_>
      <rects>
        <_>
          2 24 18 8 -1.</_>
        <_>
          2 28 18 4 2.</_></rects>
      <tilted>0</tilted></_>
    <_>
      <rects>
        <_>
          3 9 8 8 -1.</_>
        <_>
          3 9 4 4 2.</_>
        <_>
          7 13 4 4 2.</_></rects>
      <tilted>0</tilted></_>
    <_>
      <rects>
        <_>
          3 17 12 2 -1.</_>
        <_>
          9 17 6 2 2.</_></rects>
      <tilted>0</tilted></_>
    <_>
      <rects>
        <_>
          3 31 18 1 -1.</_>
        <_>
          9 31 6 1 2.</_></rects>
      <tilted>0</tilted></_>
    <_>
      <rects>
        <_>
          4 2 10 1 -1.</_>
        <_>
          9 2 5 1 2.</_></rects>
      <tilted>0</tilted></_>
    <_>
      <rects>
        <_>
          4 2 12 15 -1.</_>
        <_>
          4 7 12 5 2.</_></rects>
      <tilted>0</tilted></_>
    <_>
      <rects>
        <_>
          5 0 13 4 -1.</_>
        <_>
          5 2 13 2 2.</_></rects>
      <tilted>0</tilted></_>
    <_>
      <rects>
        <_>
          5 0 14 2 -1.</_>
        <_>
          5 1 14 1 2.</_></rects>
      <tilted>0</tilted></_>
    <_>
      <rects>
        <_>
          5 0 18 20 -1.</_>
        <_>
          5 10 18 10 2.</_></rects>
      <tilted>0</tilted></_>
    <_>
      <rects>
        <_>
          5 1 13 18 -1.</_>
        <_>
          5 10 13 9 2.</_></rects>
      <tilted>0</tilted></_>
    <_>
      <rects>
        <_>
          5 7 5 2 -1.</_>
        <_>
          5 8 5 1 2.</_></rects>
      <tilted>0</tilted></_>
    <_>
      <rects>
        <_>
          6 15 3 6 -1.</_>
        <_>
          6 18 3 3 2.</_></rects>
      <tilted>0</tilted></_>
    <_>
      <rects>
        <_>
          6 17 8 9 -1.</_>
        <_>
          6 20 8 3 2.</_></rects>
      <tilted>0</tilted></_>
    <_>
      <rects>
        <_>
          7 1 6 7 -1.</_>
        <_>
          10 1 3 7 2.</_></rects>
      <tilted>0</tilted></_>
    <_>
      <rects>
        <_>
          7 1 16 30 -1.</_>
        <_>
          7 16 16 15 2.</_></rects>
      <tilted>0</tilted></_>
    <_>
      <rects>
        <_>
          8 0 6 4 -1.</_>
        <_>
          8 2 6 2 2.</_></rects>
      <tilted>0</tilted></_>
    <_>
      <rects>
        <_>
          8 1 14 8 -1.</_>
        <_>
          8 1 7 4 2.</_>
        <_>
          15 5 7 4 2.</_></rects>
      <tilted>0</tilted></_>
    <_>
      <rects>
        <_>
          8 1 16 3 -1.</_>
        <_>
          16 1 8 3 2.</_></rects>
      <tilted>0</tilted></_>
    <_>
      <rects>
        <_>
          8 15 11 6 -1.</_>
        <_>
          8 17 11 2 2.</_></rects>
      <tilted>0</tilted></_>
    <_>
      <rects>
        <_>
          9 8 10 8 -1.</_>
        <_>
          14 8 5 8 2.</_></rects>
      <tilted>0</tilted></_>
    <_>
      <rects>
        <_>
          9 10 14 8 -1.</_>
        <_>
          9 10 7 4 2.</_>
        <_>
          16 14 7 4 2.</_></rects>
      <tilted>0</tilted></_>
    <_>
      <rects>
        <_>
          9 18 10 14 -1.</_>
        <_>
          9 25 10 7 2.</_></rects>
      <tilted>0</tilted></_>
    <_>
      <rects>
        <_>
          10 1 10 12 -1.</_>
        <_>
          10 1 5 6 2.</_>
        <_>
          15 7 5 6 2.</_></rects>
      <tilted>0</tilted></_>
    <_>
      <rects>
        <_>
          10 12 2 2 -1.</_>
        <_>
          10 13 2 1 2.</_></rects>
      <tilted>0</tilted></_>
    <_>
      <rects>
        <_>
          10 16 3 3 -1.</_>
        <_>
          11 16 1 3 2.</_></rects>
      <tilted>0</tilted></_>
    <_>
      <rects>
        <_>
          11 2 8 5 -1.</_>
        <_>
          15 2 4 5 2.</_></rects>
      <tilted>0</tilted></_>
    <_>
      <rects>
        <_>
          11 10 8 12 -1.</_>
        <_>
          11 10 4 6 2.</_>
        <_>
          15 16 4 6 2.</_></rects>
      <tilted>0</tilted></_>
    <_>
      <rects>
        <_>
          11 22 8 10 -1.</_>
        <_>
          11 27 8 5 2.</_></rects>
      <tilted>0</tilted></_>
    <_>
      <rects>
        <_>
          11 23 13 8 -1.</_>
        <_>
          11 27 13 4 2.</_></rects>
      <tilted>0</tilted></_>
    <_>
      <rects>
        <_>
          12 8 2 12 -1.</_>
        <_>
          12 14 2 6 2.</_></rects>
      <tilted>0</tilted></_>
    <_>
      <rects>
        <_>
          12 14 3 8 -1.</_>
        <_>
          13 14 1 8 2.</_></rects>
      <tilted>0</tilted></_>
    <_>
      <rects>
        <_>
          12 16 12 7 -1.</_>
        <_>
          18 16 6 7 2.</_></rects>
      <tilted>0</tilted></_>
    <_>
      <rects>
        <_>
          12 18 12 1 -1.</_>
        <_>
          18 18 6 1 2.</_></rects>
      <tilted>0</tilted></_>
    <_>
      <rects>
        <_>
          12 29 3 3 -1.</_>
        <_>
          12 30 3 1 2.</_></rects>
      <tilted>0</tilted></_>
    <_>
      <rects>
        <_>
          14 20 10 2 -1.</_>
        <_>
          19 20 5 2 2.</_></rects>
      <tilted>0</tilted></_>
    <_>
      <rects>
        <_>
          16 6 7 4 -1.</_>
        <_>
          16 8 7 2 2.</_></rects>
      <tilted>0</tilted></_>
    <_>
      <rects>
        <_>
          16 7 8 4 -1.</_>
        <_>
          16 9 8 2 2.</_></rects>
      <tilted>0</tilted></_>
    <_>
      <rects>
        <_>
          16 12 6 15 -1.</_>
        <_>
          16 17 6 5 2.</_></rects>
      <tilted>0</tilted></_>
    <_>
      <rects>
        <_>
          18 10 3 2 -1.</_>
        <_>
          19 10 1 2 2.</_></rects>
      <tilted>0</tilted></_>
    <_>
      <rects>
        <_>
          18 22 4 3 -1.</_>
        <_>
          20 22 2 3 2.</_></rects>
      <tilted>0</tilted></_>
    <_>
      <rects>
        <_>
          19 20 5 12 -1.</_>
        <_>
          19 24 5 4 2.</_></rects>
      <tilted>0</tilted></_>
    <_>
      <rects>
        <_>
          21 0 3 1 -1.</_>
        <_>
          22 0 1 1 2.</_></rects>
      <tilted>0</tilted></_>
    <_>
      <rects>
        <_>
          21 13 3 9 -1.</_>
        <_>
          22 13 1 9 2.</_></rects>
      <tilted>0</tilted></_>
    <_>
      <rects>
        <_>
          21 14 1 3 -1.</_>
        <_>
          21 15 1 1 2.</_></rects>
      <tilted>0</tilted></_>
    <_>
      <rects>
        <_>
          21 15 3 5 -1.</_>
        <_>
          22 15 1 5 2.</_></rects>
      <tilted>0</tilted></_>
    <_>
      <rects>
        <_>
          22 15 2 4 -1.</_>
        <_>
          22 15 1 2 2.</_>
        <_>
          23 17 1 2 2.</_></rects>
      <tilted>0</tilted></_>
    <_>
      <rects>
        <_>
          22 15 2 4 -1.</_>
        <_>
          23 15 1 4 2.</_></rects>
      <tilted>0</tilted></_>
    <_>
      <rects>
        <_>
          22 16 1 4 -1.</_>
        <_>
          22 18 1 2 2.</_></rects>
      <tilted>0</tilted></_>
    <_>
      <rects>
        <_>
          22 17 2 6 -1.</_>
        <_>
          23 17 1 6 2.</_></rects>
      <tilted>0</tilted></_>
    <_>
      <rects>
        <_>
          22 29 2 3 -1.</_>
        <_>
          22 30 2 1 2.</_></rects>
      <tilted>0</tilted></_>
    <_>
      <rects>
        <_>
          23 10 1 18 -1.</_>
        <_>
          23 16 1 6 2.</_></rects>
      <tilted>0</tilted></_>
    <_>
      <rects>
        <_>
          23 13 1 3 -1.</_>
        <_>
          23 14 1 1 2.</_></rects>
      <tilted>0</tilted></_></features></cascade>
</opencv_storage>
