<?xml version="1.0"?>
<opencv_storage>
<stage9>
  <maxWeakCount>8</maxWeakCount>
  <stageThreshold>-1.2205985784530640e+00</stageThreshold>
  <weakClassifiers>
    <_>
      <internalNodes>
        0 -1 160776 -6.7901305854320526e-02</internalNodes>
      <leafValues>
        8.7500000000000000e-01 -4.9579831957817078e-01</leafValues></_>
    <_>
      <internalNodes>
        0 -1 287626 -1.5212360303848982e-03</internalNodes>
      <leafValues>
        2.0468461513519287e-01 -9.6023482084274292e-01</leafValues></_>
    <_>
      <internalNodes>
        0 -1 285018 -1.2745013460516930e-02</internalNodes>
      <leafValues>
        -6.8319493532180786e-01 2.7410006523132324e-01</leafValues></_>
    <_>
      <internalNodes>
        0 -1 138223 -1.0257591493427753e-03</internalNodes>
      <leafValues>
        4.0157008171081543e-01 -5.2279144525527954e-01</leafValues></_>
    <_>
      <internalNodes>
        0 -1 1276 -6.7953937686979771e-03</internalNodes>
      <leafValues>
        2.9519468545913696e-01 -7.7176123857498169e-01</leafValues></_>
    <_>
      <internalNodes>
        0 -1 286948 -3.9271713467314839e-04</internalNodes>
      <leafValues>
        -8.0646812915802002e-01 2.6133278012275696e-01</leafValues></_>
    <_>
      <internalNodes>
        0 -1 114535 -9.4812299357727170e-04</internalNodes>
      <leafValues>
        5.7852619886398315e-01 -3.6702269315719604e-01</leafValues></_>
    <_>
      <internalNodes>
        0 -1 199417 -5.0345766358077526e-03</internalNodes>
      <leafValues>
        -7.4715226888656616e-01 2.9462108016014099e-01</leafValues></_></weakClassifiers></stage9>
</opencv_storage>
