<?xml version="1.0"?>
<opencv_storage>
<stage13>
  <maxWeakCount>6</maxWeakCount>
  <stageThreshold>-1.1309442520141602e+00</stageThreshold>
  <weakClassifiers>
    <_>
      <internalNodes>
        0 -1 2082 4.5599922537803650e-02</internalNodes>
      <leafValues>
        -5.0218337774276733e-01 6.0975611209869385e-01</leafValues></_>
    <_>
      <internalNodes>
        0 -1 286899 -2.2944546071812510e-04</internalNodes>
      <leafValues>
        -8.3448314666748047e-01 2.3016706109046936e-01</leafValues></_>
    <_>
      <internalNodes>
        0 -1 17091 2.4217807222157717e-03</internalNodes>
      <leafValues>
        2.2909946739673615e-01 -7.5374782085418701e-01</leafValues></_>
    <_>
      <internalNodes>
        0 -1 260165 -8.0359742045402527e-02</internalNodes>
      <leafValues>
        -8.7325555086135864e-01 1.9138441979885101e-01</leafValues></_>
    <_>
      <internalNodes>
        0 -1 284854 -1.4503408223390579e-02</internalNodes>
      <leafValues>
        2.3515422642230988e-01 -8.7327700853347778e-01</leafValues></_>
    <_>
      <internalNodes>
        0 -1 209512 7.8510213643312454e-03</internalNodes>
      <leafValues>
        -4.4992604851722717e-01 4.2411375045776367e-01</leafValues></_></weakClassifiers></stage13>
</opencv_storage>
