<?xml version="1.0"?>
<opencv_storage>
<cascade>
  <stageType>BOOST</stageType>
  <featureType>HAAR</featureType>
  <height>32</height>
  <width>24</width>
  <stageParams>
    <boostType>GAB</boostType>
    <minHitRate>9.9500000476837158e-01</minHitRate>
    <maxFalseAlarm>5.0000000000000000e-01</maxFalseAlarm>
    <weightTrimRate>9.4999999999999996e-01</weightTrimRate>
    <maxDepth>1</maxDepth>
    <maxWeakCount>100</maxWeakCount></stageParams>
  <featureParams>
    <maxCatCount>0</maxCatCount>
    <featSize>1</featSize>
    <mode>ALL</mode></featureParams>
  <stageNum>20</stageNum>
  <stages>
    <!-- stage 0 -->
    <_>
      <maxWeakCount>3</maxWeakCount>
      <stageThreshold>-1.0607336759567261e+00</stageThreshold>
      <weakClassifiers>
        <_>
          <internalNodes>
            0 -1 7 -1.6547374427318573e-02</internalNodes>
          <leafValues>
            8.3999997377395630e-01 -8.1647056341171265e-01</leafValues></_>
        <_>
          <internalNodes>
            0 -1 10 -2.8382737189531326e-02</internalNodes>
          <leafValues>
            6.8897169828414917e-01 -8.9639955759048462e-01</leafValues></_>
        <_>
          <internalNodes>
            0 -1 35 -1.5177968144416809e-01</internalNodes>
          <leafValues>
            6.5213650465011597e-01 -9.1986900568008423e-01</leafValues></_></weakClassifiers></_>
    <!-- stage 1 -->
    <_>
      <maxWeakCount>2</maxWeakCount>
      <stageThreshold>-6.7350322008132935e-01</stageThreshold>
      <weakClassifiers>
        <_>
          <internalNodes>
            0 -1 30 -1.9164964556694031e-01</internalNodes>
          <leafValues>
            -9.9416911602020264e-01 5.4863810539245605e-01</leafValues></_>
        <_>
          <internalNodes>
            0 -1 46 -8.1583997234702110e-03</internalNodes>
          <leafValues>
            3.2066583633422852e-01 -9.2779839038848877e-01</leafValues></_></weakClassifiers></_>
    <!-- stage 2 -->
    <_>
      <maxWeakCount>2</maxWeakCount>
      <stageThreshold>-5.0897771120071411e-01</stageThreshold>
      <weakClassifiers>
        <_>
          <internalNodes>
            0 -1 15 -4.1891291737556458e-02</internalNodes>
          <leafValues>
            -9.8773008584976196e-01 4.4525548815727234e-01</leafValues></_>
        <_>
          <internalNodes>
            0 -1 80 2.9303427785634995e-02</internalNodes>
          <leafValues>
            -7.8418582677841187e-01 4.7875234484672546e-01</leafValues></_></weakClassifiers></_>
    <!-- stage 3 -->
    <_>
      <maxWeakCount>4</maxWeakCount>
      <stageThreshold>-6.8056219816207886e-01</stageThreshold>
      <weakClassifiers>
        <_>
          <internalNodes>
            0 -1 6 -1.5978127717971802e-02</internalNodes>
          <leafValues>
            6.8918919563293457e-01 -6.6814160346984863e-01</leafValues></_>
        <_>
          <internalNodes>
            0 -1 61 3.1897684093564749e-03</internalNodes>
          <leafValues>
            -8.2978594303131104e-01 4.9398910999298096e-01</leafValues></_>
        <_>
          <internalNodes>
            0 -1 72 -4.5859027653932571e-02</internalNodes>
          <leafValues>
            -1. 3.8709232211112976e-01</leafValues></_>
        <_>
          <internalNodes>
            0 -1 11 -1.4014404267072678e-02</internalNodes>
          <leafValues>
            4.3027299642562866e-01 -8.6057758331298828e-01</leafValues></_></weakClassifiers></_>
    <!-- stage 4 -->
    <_>
      <maxWeakCount>2</maxWeakCount>
      <stageThreshold>-4.2651143670082092e-01</stageThreshold>
      <weakClassifiers>
        <_>
          <internalNodes>
            0 -1 0 -9.0439524501562119e-03</internalNodes>
          <leafValues>
            3.8955822587013245e-01 -8.4615385532379150e-01</leafValues></_>
        <_>
          <internalNodes>
            0 -1 66 6.5099522471427917e-03</internalNodes>
          <leafValues>
            -8.1606966257095337e-01 4.3177482485771179e-01</leafValues></_></weakClassifiers></_>
    <!-- stage 5 -->
    <_>
      <maxWeakCount>5</maxWeakCount>
      <stageThreshold>-9.7855573892593384e-01</stageThreshold>
      <weakClassifiers>
        <_>
          <internalNodes>
            0 -1 81 3.7107147276401520e-02</internalNodes>
          <leafValues>
            -6.8202763795852661e-01 5.7831323146820068e-01</leafValues></_>
        <_>
          <internalNodes>
            0 -1 12 -7.2331866249442101e-03</internalNodes>
          <leafValues>
            3.3755031228065491e-01 -8.0463552474975586e-01</leafValues></_>
        <_>
          <internalNodes>
            0 -1 45 -1.0330468416213989e-02</internalNodes>
          <leafValues>
            8.0776715278625488e-01 -4.3267488479614258e-01</leafValues></_>
        <_>
          <internalNodes>
            0 -1 2 -3.4708324074745178e-01</internalNodes>
          <leafValues>
            4.2988237738609314e-01 -8.2545739412307739e-01</leafValues></_>
        <_>
          <internalNodes>
            0 -1 42 -1.2787431478500366e-02</internalNodes>
          <leafValues>
            6.2405383586883545e-01 -5.2378624677658081e-01</leafValues></_></weakClassifiers></_>
    <!-- stage 6 -->
    <_>
      <maxWeakCount>4</maxWeakCount>
      <stageThreshold>-1.1672538518905640e+00</stageThreshold>
      <weakClassifiers>
        <_>
          <internalNodes>
            0 -1 19 -3.6230236291885376e-01</internalNodes>
          <leafValues>
            2.1501706540584564e-01 -8.5667753219604492e-01</leafValues></_>
        <_>
          <internalNodes>
            0 -1 40 -1.1731789447367191e-02</internalNodes>
          <leafValues>
            3.6235421895980835e-01 -8.0174320936203003e-01</leafValues></_>
        <_>
          <internalNodes>
            0 -1 89 -7.6138237491250038e-03</internalNodes>
          <leafValues>
            2.3872044682502747e-01 -9.8852825164794922e-01</leafValues></_>
        <_>
          <internalNodes>
            0 -1 79 -7.5467362999916077e-02</internalNodes>
          <leafValues>
            -9.7802937030792236e-01 2.5244641304016113e-01</leafValues></_></weakClassifiers></_>
    <!-- stage 7 -->
    <_>
      <maxWeakCount>5</maxWeakCount>
      <stageThreshold>-1.3267885446548462e+00</stageThreshold>
      <weakClassifiers>
        <_>
          <internalNodes>
            0 -1 38 -7.4561801739037037e-03</internalNodes>
          <leafValues>
            5.5555558204650879e-01 -6.6210043430328369e-01</leafValues></_>
        <_>
          <internalNodes>
            0 -1 84 -7.6821143738925457e-03</internalNodes>
          <leafValues>
            3.1255716085433960e-01 -9.3828517198562622e-01</leafValues></_>
        <_>
          <internalNodes>
            0 -1 73 -5.0706877373158932e-03</internalNodes>
          <leafValues>
            3.5213929414749146e-01 -7.0984518527984619e-01</leafValues></_>
        <_>
          <internalNodes>
            0 -1 17 -1.6116557642817497e-02</internalNodes>
          <leafValues>
            -9.4400614500045776e-01 2.6374581456184387e-01</leafValues></_>
        <_>
          <internalNodes>
            0 -1 71 -3.4996986389160156e-02</internalNodes>
          <leafValues>
            5.1033991575241089e-01 -5.3114587068557739e-01</leafValues></_></weakClassifiers></_>
    <!-- stage 8 -->
    <_>
      <maxWeakCount>4</maxWeakCount>
      <stageThreshold>-6.5156751871109009e-01</stageThreshold>
      <weakClassifiers>
        <_>
          <internalNodes>
            0 -1 36 -1.2134950608015060e-02</internalNodes>
          <leafValues>
            5.7692307233810425e-01 -6.5315318107604980e-01</leafValues></_>
        <_>
          <internalNodes>
            0 -1 33 5.6572416797280312e-03</internalNodes>
          <leafValues>
            -7.1250957250595093e-01 4.2159229516983032e-01</leafValues></_>
        <_>
          <internalNodes>
            0 -1 70 5.2972920238971710e-02</internalNodes>
          <leafValues>
            -7.7141922712326050e-01 3.5548698902130127e-01</leafValues></_>
        <_>
          <internalNodes>
            0 -1 65 6.3522458076477051e-03</internalNodes>
          <leafValues>
            -7.7549362182617188e-01 3.9026439189910889e-01</leafValues></_></weakClassifiers></_>
    <!-- stage 9 -->
    <_>
      <maxWeakCount>5</maxWeakCount>
      <stageThreshold>-8.3129739761352539e-01</stageThreshold>
      <weakClassifiers>
        <_>
          <internalNodes>
            0 -1 5 -4.0017049759626389e-03</internalNodes>
          <leafValues>
            5.4945055395364761e-02 -9.3220341205596924e-01</leafValues></_>
        <_>
          <internalNodes>
            0 -1 47 -2.9537867754697800e-02</internalNodes>
          <leafValues>
            6.8006271123886108e-01 -4.1972801089286804e-01</leafValues></_>
        <_>
          <internalNodes>
            0 -1 53 1.4699346385896206e-02</internalNodes>
          <leafValues>
            -3.1429913640022278e-01 7.7231824398040771e-01</leafValues></_>
        <_>
          <internalNodes>
            0 -1 57 1.2022528797388077e-02</internalNodes>
          <leafValues>
            -2.7243706583976746e-01 7.8475874662399292e-01</leafValues></_>
        <_>
          <internalNodes>
            0 -1 9 -1.9165845215320587e-01</internalNodes>
          <leafValues>
            -9.3697404861450195e-01 2.8126221895217896e-01</leafValues></_></weakClassifiers></_>
    <!-- stage 10 -->
    <_>
      <maxWeakCount>4</maxWeakCount>
      <stageThreshold>-8.5290127992630005e-01</stageThreshold>
      <weakClassifiers>
        <_>
          <internalNodes>
            0 -1 3 -2.4151340126991272e-02</internalNodes>
          <leafValues>
            2.2509224712848663e-01 -7.9331308603286743e-01</leafValues></_>
        <_>
          <internalNodes>
            0 -1 23 -8.9975502341985703e-03</internalNodes>
          <leafValues>
            4.8752740025520325e-01 -5.0529778003692627e-01</leafValues></_>
        <_>
          <internalNodes>
            0 -1 20 -3.4069266170263290e-02</internalNodes>
          <leafValues>
            2.5155848264694214e-01 -1.</leafValues></_>
        <_>
          <internalNodes>
            0 -1 31 -5.8100201189517975e-02</internalNodes>
          <leafValues>
            -9.4939929246902466e-01 1.9415105879306793e-01</leafValues></_></weakClassifiers></_>
    <!-- stage 11 -->
    <_>
      <maxWeakCount>6</maxWeakCount>
      <stageThreshold>-9.6731466054916382e-01</stageThreshold>
      <weakClassifiers>
        <_>
          <internalNodes>
            0 -1 51 -6.6215083003044128e-02</internalNodes>
          <leafValues>
            7.2815531492233276e-01 -5.5331993103027344e-01</leafValues></_>
        <_>
          <internalNodes>
            0 -1 22 -8.2787219434976578e-03</internalNodes>
          <leafValues>
            2.6573833823204041e-01 -8.0508929491043091e-01</leafValues></_>
        <_>
          <internalNodes>
            0 -1 56 9.9310753867030144e-03</internalNodes>
          <leafValues>
            -3.3628097176551819e-01 6.8511885404586792e-01</leafValues></_>
        <_>
          <internalNodes>
            0 -1 90 -9.4229751266539097e-04</internalNodes>
          <leafValues>
            -7.7660065889358521e-01 2.8222075104713440e-01</leafValues></_>
        <_>
          <internalNodes>
            0 -1 60 1.3395211426541209e-03</internalNodes>
          <leafValues>
            -8.0952692031860352e-01 2.4936191737651825e-01</leafValues></_>
        <_>
          <internalNodes>
            0 -1 48 -1.0231059975922108e-02</internalNodes>
          <leafValues>
            -8.3754575252532959e-01 2.6831474900245667e-01</leafValues></_></weakClassifiers></_>
    <!-- stage 12 -->
    <_>
      <maxWeakCount>6</maxWeakCount>
      <stageThreshold>-6.4916896820068359e-01</stageThreshold>
      <weakClassifiers>
        <_>
          <internalNodes>
            0 -1 29 4.8609428107738495e-02</internalNodes>
          <leafValues>
            -5.1669943332672119e-01 6.9230771064758301e-01</leafValues></_>
        <_>
          <internalNodes>
            0 -1 18 -5.6397644802927971e-03</internalNodes>
          <leafValues>
            -1. 1.5342032909393311e-01</leafValues></_>
        <_>
          <internalNodes>
            0 -1 16 9.1195553541183472e-03</internalNodes>
          <leafValues>
            2.0422425866127014e-01 -8.2283240556716919e-01</leafValues></_>
        <_>
          <internalNodes>
            0 -1 37 8.0775339156389236e-03</internalNodes>
          <leafValues>
            -5.3209793567657471e-01 3.9973282814025879e-01</leafValues></_>
        <_>
          <internalNodes>
            0 -1 27 -1.5321495011448860e-02</internalNodes>
          <leafValues>
            4.8198980093002319e-01 -4.4771865010261536e-01</leafValues></_>
        <_>
          <internalNodes>
            0 -1 28 -2.0179366692900658e-02</internalNodes>
          <leafValues>
            6.1909723281860352e-01 -3.4478011727333069e-01</leafValues></_></weakClassifiers></_>
    <!-- stage 13 -->
    <_>
      <maxWeakCount>7</maxWeakCount>
      <stageThreshold>-1.5665086507797241e+00</stageThreshold>
      <weakClassifiers>
        <_>
          <internalNodes>
            0 -1 43 -1.7821779474616051e-02</internalNodes>
          <leafValues>
            3.1531530618667603e-01 -7.1428573131561279e-01</leafValues></_>
        <_>
          <internalNodes>
            0 -1 58 -4.8023395240306854e-02</internalNodes>
          <leafValues>
            3.0461975932121277e-01 -7.2226881980895996e-01</leafValues></_>
        <_>
          <internalNodes>
            0 -1 13 -5.4695550352334976e-03</internalNodes>
          <leafValues>
            3.1309247016906738e-01 -7.1137851476669312e-01</leafValues></_>
        <_>
          <internalNodes>
            0 -1 75 -1.1194057762622833e-01</internalNodes>
          <leafValues>
            4.1998887062072754e-01 -5.3310388326644897e-01</leafValues></_>
        <_>
          <internalNodes>
            0 -1 8 3.3513341099023819e-02</internalNodes>
          <leafValues>
            -3.6808368563652039e-01 6.2641841173171997e-01</leafValues></_>
        <_>
          <internalNodes>
            0 -1 21 -4.8334620893001556e-02</internalNodes>
          <leafValues>
            2.7092105150222778e-01 -8.1460928916931152e-01</leafValues></_>
        <_>
          <internalNodes>
            0 -1 41 -3.2842451333999634e-01</internalNodes>
          <leafValues>
            -9.7946798801422119e-01 1.8721993267536163e-01</leafValues></_></weakClassifiers></_>
    <!-- stage 14 -->
    <_>
      <maxWeakCount>4</maxWeakCount>
      <stageThreshold>-6.9525772333145142e-01</stageThreshold>
      <weakClassifiers>
        <_>
          <internalNodes>
            0 -1 59 8.6778942495584488e-03</internalNodes>
          <leafValues>
            -4.7663551568984985e-01 8.4615385532379150e-01</leafValues></_>
        <_>
          <internalNodes>
            0 -1 82 5.8021564036607742e-03</internalNodes>
          <leafValues>
            2.0520831644535065e-01 -1.</leafValues></_>
        <_>
          <internalNodes>
            0 -1 55 -5.8023050427436829e-02</internalNodes>
          <leafValues>
            1.7962373793125153e-01 -8.8051116466522217e-01</leafValues></_>
        <_>
          <internalNodes>
            0 -1 88 5.0725406035780907e-03</internalNodes>
          <leafValues>
            -4.5242968201637268e-01 4.5668062567710876e-01</leafValues></_></weakClassifiers></_>
    <!-- stage 15 -->
    <_>
      <maxWeakCount>4</maxWeakCount>
      <stageThreshold>-4.8468279838562012e-01</stageThreshold>
      <weakClassifiers>
        <_>
          <internalNodes>
            0 -1 25 2.4325985461473465e-02</internalNodes>
          <leafValues>
            -5.1968502998352051e-01 6.9565218687057495e-01</leafValues></_>
        <_>
          <internalNodes>
            0 -1 39 -2.6104006171226501e-01</internalNodes>
          <leafValues>
            -1. 2.0040620863437653e-01</leafValues></_>
        <_>
          <internalNodes>
            0 -1 77 4.9306578934192657e-02</internalNodes>
          <leafValues>
            -4.2331215739250183e-01 5.1758784055709839e-01</leafValues></_>
        <_>
          <internalNodes>
            0 -1 83 -7.7291550114750862e-03</internalNodes>
          <leafValues>
            2.5790819525718689e-01 -1.</leafValues></_></weakClassifiers></_>
    <!-- stage 16 -->
    <_>
      <maxWeakCount>5</maxWeakCount>
      <stageThreshold>-9.6765732765197754e-01</stageThreshold>
      <weakClassifiers>
        <_>
          <internalNodes>
            0 -1 24 4.3464221060276031e-02</internalNodes>
          <leafValues>
            -6.1027836799621582e-01 6.3909775018692017e-01</leafValues></_>
        <_>
          <internalNodes>
            0 -1 52 3.0466150492429733e-03</internalNodes>
          <leafValues>
            2.2783389687538147e-01 -8.5036891698837280e-01</leafValues></_>
        <_>
          <internalNodes>
            0 -1 14 -8.6260624229907990e-03</internalNodes>
          <leafValues>
            1.9994384050369263e-01 -8.8641029596328735e-01</leafValues></_>
        <_>
          <internalNodes>
            0 -1 54 1.9913630094379187e-03</internalNodes>
          <leafValues>
            -3.4816914796829224e-01 6.2328529357910156e-01</leafValues></_>
        <_>
          <internalNodes>
            0 -1 67 -2.7747477870434523e-03</internalNodes>
          <leafValues>
            6.6477566957473755e-01 -3.3023917675018311e-01</leafValues></_></weakClassifiers></_>
    <!-- stage 17 -->
    <_>
      <maxWeakCount>3</maxWeakCount>
      <stageThreshold>-2.6248523592948914e-01</stageThreshold>
      <weakClassifiers>
        <_>
          <internalNodes>
            0 -1 69 3.6250293254852295e-02</internalNodes>
          <leafValues>
            -6.0173159837722778e-01 5.6521737575531006e-01</leafValues></_>
        <_>
          <internalNodes>
            0 -1 78 -1.4897456765174866e-01</internalNodes>
          <leafValues>
            -9.7655051946640015e-01 1.7647078633308411e-01</leafValues></_>
        <_>
          <internalNodes>
            0 -1 34 1.4432533644139767e-02</internalNodes>
          <leafValues>
            1.6277556121349335e-01 -9.7844135761260986e-01</leafValues></_></weakClassifiers></_>
    <!-- stage 18 -->
    <_>
      <maxWeakCount>8</maxWeakCount>
      <stageThreshold>-1.0094218254089355e+00</stageThreshold>
      <weakClassifiers>
        <_>
          <internalNodes>
            0 -1 76 4.2625043541193008e-02</internalNodes>
          <leafValues>
            -6.2720400094985962e-01 2.4137930572032928e-01</leafValues></_>
        <_>
          <internalNodes>
            0 -1 44 -7.8299259766936302e-03</internalNodes>
          <leafValues>
            5.1109260320663452e-01 -3.6389634013175964e-01</leafValues></_>
        <_>
          <internalNodes>
            0 -1 4 -1.8951728940010071e-02</internalNodes>
          <leafValues>
            2.0935891568660736e-01 -8.5873514413833618e-01</leafValues></_>
        <_>
          <internalNodes>
            0 -1 64 -1.6096811741590500e-02</internalNodes>
          <leafValues>
            4.8879846930503845e-01 -4.3629571795463562e-01</leafValues></_>
        <_>
          <internalNodes>
            0 -1 87 -2.8225965797901154e-03</internalNodes>
          <leafValues>
            -5.8267182111740112e-01 2.7737072110176086e-01</leafValues></_>
        <_>
          <internalNodes>
            0 -1 74 -1.1022525723092258e-04</internalNodes>
          <leafValues>
            -6.8251150846481323e-01 2.4691276252269745e-01</leafValues></_>
        <_>
          <internalNodes>
            0 -1 85 -1.7406441271305084e-02</internalNodes>
          <leafValues>
            1.5157319605350494e-01 -9.5526951551437378e-01</leafValues></_>
        <_>
          <internalNodes>
            0 -1 49 -1.4143371023237705e-02</internalNodes>
          <leafValues>
            8.4910178184509277e-01 -2.6340049505233765e-01</leafValues></_></weakClassifiers></_>
    <!-- stage 19 -->
    <_>
      <maxWeakCount>8</maxWeakCount>
      <stageThreshold>-1.5838537216186523e+00</stageThreshold>
      <weakClassifiers>
        <_>
          <internalNodes>
            0 -1 26 -1.6777681186795235e-02</internalNodes>
          <leafValues>
            3.4146341681480408e-01 -5.8715593814849854e-01</leafValues></_>
        <_>
          <internalNodes>
            0 -1 50 8.7320702150464058e-03</internalNodes>
          <leafValues>
            -2.5628122687339783e-01 6.8282651901245117e-01</leafValues></_>
        <_>
          <internalNodes>
            0 -1 63 -3.8992082700133324e-03</internalNodes>
          <leafValues>
            5.6899797916412354e-01 -3.5112753510475159e-01</leafValues></_>
        <_>
          <internalNodes>
            0 -1 32 9.5967315137386322e-03</internalNodes>
          <leafValues>
            -2.6184761524200439e-01 6.6318982839584351e-01</leafValues></_>
        <_>
          <internalNodes>
            0 -1 86 -5.1004469394683838e-02</internalNodes>
          <leafValues>
            -7.2414135932922363e-01 2.6891607046127319e-01</leafValues></_>
        <_>
          <internalNodes>
            0 -1 68 -3.9514873176813126e-02</internalNodes>
          <leafValues>
            7.1690672636032104e-01 -2.5150015950202942e-01</leafValues></_>
        <_>
          <internalNodes>
            0 -1 62 1.2548435479402542e-02</internalNodes>
          <leafValues>
            -4.2982864379882813e-01 4.8323681950569153e-01</leafValues></_>
        <_>
          <internalNodes>
            0 -1 1 -2.4375433102250099e-02</internalNodes>
          <leafValues>
            2.5640279054641724e-01 -6.5413635969161987e-01</leafValues></_></weakClassifiers></_></stages>
  <features>
    <_>
      <rects>
        <_>
          0 0 1 16 -1.</_>
        <_>
          0 8 1 8 2.</_></rects>
      <tilted>0</tilted></_>
    <_>
      <rects>
        <_>
          0 0 19 6 -1.</_>
        <_>
          0 3 19 3 2.</_></rects>
      <tilted>0</tilted></_>
    <_>
      <rects>
        <_>
          0 0 21 30 -1.</_>
        <_>
          0 15 21 15 2.</_></rects>
      <tilted>0</tilted></_>
    <_>
      <rects>
        <_>
          0 1 24 4 -1.</_>
        <_>
          6 1 12 4 2.</_></rects>
      <tilted>0</tilted></_>
    <_>
      <rects>
        <_>
          0 1 16 12 -1.</_>
        <_>
          0 7 16 6 2.</_></rects>
      <tilted>0</tilted></_>
    <_>
      <rects>
        <_>
          0 2 3 1 -1.</_>
        <_>
          1 2 1 1 2.</_></rects>
      <tilted>0</tilted></_>
    <_>
      <rects>
        <_>
          0 2 24 1 -1.</_>
        <_>
          6 2 12 1 2.</_></rects>
      <tilted>0</tilted></_>
    <_>
      <rects>
        <_>
          0 2 24 2 -1.</_>
        <_>
          6 2 12 2 2.</_></rects>
      <tilted>0</tilted></_>
    <_>
      <rects>
        <_>
          0 3 15 6 -1.</_>
        <_>
          5 5 5 2 9.</_></rects>
      <tilted>0</tilted></_>
    <_>
      <rects>
        <_>
          0 6 9 22 -1.</_>
        <_>
          3 6 3 22 2.</_></rects>
      <tilted>0</tilted></_>
    <_>
      <rects>
        <_>
          0 14 24 9 -1.</_>
        <_>
          6 14 12 9 2.</_></rects>
      <tilted>0</tilted></_>
    <_>
      <rects>
        <_>
          0 14 14 7 -1.</_>
        <_>
          7 14 7 7 2.</_></rects>
      <tilted>0</tilted></_>
    <_>
      <rects>
        <_>
          0 15 16 4 -1.</_>
        <_>
          8 15 8 4 2.</_></rects>
      <tilted>0</tilted></_>
    <_>
      <rects>
        <_>
          0 17 14 2 -1.</_>
        <_>
          7 17 7 2 2.</_></rects>
      <tilted>0</tilted></_>
    <_>
      <rects>
        <_>
          0 21 2 9 -1.</_>
        <_>
          0 24 2 3 2.</_></rects>
      <tilted>0</tilted></_>
    <_>
      <rects>
        <_>
          0 24 6 8 -1.</_>
        <_>
          2 24 2 8 2.</_></rects>
      <tilted>0</tilted></_>
    <_>
      <rects>
        <_>
          0 28 20 3 -1.</_>
        <_>
          10 28 10 3 2.</_></rects>
      <tilted>0</tilted></_>
    <_>
      <rects>
        <_>
          0 29 6 3 -1.</_>
        <_>
          2 29 2 3 2.</_></rects>
      <tilted>0</tilted></_>
    <_>
      <rects>
        <_>
          0 30 24 1 -1.</_>
        <_>
          12 30 12 1 2.</_></rects>
      <tilted>0</tilted></_>
    <_>
      <rects>
        <_>
          1 0 23 20 -1.</_>
        <_>
          1 10 23 10 2.</_></rects>
      <tilted>0</tilted></_>
    <_>
      <rects>
        <_>
          1 2 3 15 -1.</_>
        <_>
          2 2 1 15 2.</_></rects>
      <tilted>0</tilted></_>
    <_>
      <rects>
        <_>
          1 11 4 21 -1.</_>
        <_>
          1 18 4 7 2.</_></rects>
      <tilted>0</tilted></_>
    <_>
      <rects>
        <_>
          2 0 17 4 -1.</_>
        <_>
          2 2 17 2 2.</_></rects>
      <tilted>0</tilted></_>
    <_>
      <rects>
        <_>
          2 0 19 2 -1.</_>
        <_>
          2 1 19 1 2.</_></rects>
      <tilted>0</tilted></_>
    <_>
      <rects>
        <_>
          2 1 12 12 -1.</_>
        <_>
          2 1 6 6 2.</_>
        <_>
          8 7 6 6 2.</_></rects>
      <tilted>0</tilted></_>
    <_>
      <rects>
        <_>
          2 2 12 6 -1.</_>
        <_>
          5 2 6 6 2.</_></rects>
      <tilted>0</tilted></_>
    <_>
      <rects>
        <_>
          2 8 10 8 -1.</_>
        <_>
          2 8 5 4 2.</_>
        <_>
          7 12 5 4 2.</_></rects>
      <tilted>0</tilted></_>
    <_>
      <rects>
        <_>
          3 0 12 4 -1.</_>
        <_>
          3 2 12 2 2.</_></rects>
      <tilted>0</tilted></_>
    <_>
      <rects>
        <_>
          3 6 20 2 -1.</_>
        <_>
          8 6 10 2 2.</_></rects>
      <tilted>0</tilted></_>
    <_>
      <rects>
        <_>
          4 1 10 10 -1.</_>
        <_>
          4 1 5 5 2.</_>
        <_>
          9 6 5 5 2.</_></rects>
      <tilted>0</tilted></_>
    <_>
      <rects>
        <_>
          4 4 13 12 -1.</_>
        <_>
          4 8 13 4 2.</_></rects>
      <tilted>0</tilted></_>
    <_>
      <rects>
        <_>
          4 18 13 6 -1.</_>
        <_>
          4 20 13 2 2.</_></rects>
      <tilted>0</tilted></_>
    <_>
      <rects>
        <_>
          4 23 12 6 -1.</_>
        <_>
          8 25 4 2 9.</_></rects>
      <tilted>0</tilted></_>
    <_>
      <rects>
        <_>
          4 26 18 6 -1.</_>
        <_>
          4 29 18 3 2.</_></rects>
      <tilted>0</tilted></_>
    <_>
      <rects>
        <_>
          4 28 20 3 -1.</_>
        <_>
          9 28 10 3 2.</_></rects>
      <tilted>0</tilted></_>
    <_>
      <rects>
        <_>
          5 0 19 16 -1.</_>
        <_>
          5 8 19 8 2.</_></rects>
      <tilted>0</tilted></_>
    <_>
      <rects>
        <_>
          5 1 8 4 -1.</_>
        <_>
          9 1 4 4 2.</_></rects>
      <tilted>0</tilted></_>
    <_>
      <rects>
        <_>
          5 26 16 6 -1.</_>
        <_>
          5 29 16 3 2.</_></rects>
      <tilted>0</tilted></_>
    <_>
      <rects>
        <_>
          6 0 10 2 -1.</_>
        <_>
          6 1 10 1 2.</_></rects>
      <tilted>0</tilted></_>
    <_>
      <rects>
        <_>
          6 0 10 21 -1.</_>
        <_>
          6 7 10 7 2.</_></rects>
      <tilted>0</tilted></_>
    <_>
      <rects>
        <_>
          6 0 18 4 -1.</_>
        <_>
          6 2 18 2 2.</_></rects>
      <tilted>0</tilted></_>
    <_>
      <rects>
        <_>
          6 1 13 21 -1.</_>
        <_>
          6 8 13 7 2.</_></rects>
      <tilted>0</tilted></_>
    <_>
      <rects>
        <_>
          6 5 16 5 -1.</_>
        <_>
          10 5 8 5 2.</_></rects>
      <tilted>0</tilted></_>
    <_>
      <rects>
        <_>
          6 5 17 6 -1.</_>
        <_>
          4 7 17 2 3.</_></rects>
      <tilted>1</tilted></_>
    <_>
      <rects>
        <_>
          7 0 8 2 -1.</_>
        <_>
          7 1 8 1 2.</_></rects>
      <tilted>0</tilted></_>
    <_>
      <rects>
        <_>
          7 0 11 2 -1.</_>
        <_>
          7 1 11 1 2.</_></rects>
      <tilted>0</tilted></_>
    <_>
      <rects>
        <_>
          7 0 15 4 -1.</_>
        <_>
          7 2 15 2 2.</_></rects>
      <tilted>0</tilted></_>
    <_>
      <rects>
        <_>
          7 1 12 5 -1.</_>
        <_>
          10 1 6 5 2.</_></rects>
      <tilted>0</tilted></_>
    <_>
      <rects>
        <_>
          7 17 16 6 -1.</_>
        <_>
          7 20 16 3 2.</_></rects>
      <tilted>0</tilted></_>
    <_>
      <rects>
        <_>
          7 23 12 4 -1.</_>
        <_>
          10 23 6 4 2.</_></rects>
      <tilted>0</tilted></_>
    <_>
      <rects>
        <_>
          7 24 12 5 -1.</_>
        <_>
          10 24 6 5 2.</_></rects>
      <tilted>0</tilted></_>
    <_>
      <rects>
        <_>
          8 0 9 6 -1.</_>
        <_>
          11 2 3 2 9.</_></rects>
      <tilted>0</tilted></_>
    <_>
      <rects>
        <_>
          8 31 16 1 -1.</_>
        <_>
          16 31 8 1 2.</_></rects>
      <tilted>0</tilted></_>
    <_>
      <rects>
        <_>
          9 0 12 6 -1.</_>
        <_>
          12 0 6 6 2.</_></rects>
      <tilted>0</tilted></_>
    <_>
      <rects>
        <_>
          9 2 4 3 -1.</_>
        <_>
          10 3 2 3 2.</_></rects>
      <tilted>1</tilted></_>
    <_>
      <rects>
        <_>
          9 3 14 14 -1.</_>
        <_>
          9 10 14 7 2.</_></rects>
      <tilted>0</tilted></_>
    <_>
      <rects>
        <_>
          10 0 8 29 -1.</_>
        <_>
          12 0 4 29 2.</_></rects>
      <tilted>0</tilted></_>
    <_>
      <rects>
        <_>
          10 1 6 4 -1.</_>
        <_>
          12 3 2 4 3.</_></rects>
      <tilted>1</tilted></_>
    <_>
      <rects>
        <_>
          10 3 9 14 -1.</_>
        <_>
          10 10 9 7 2.</_></rects>
      <tilted>0</tilted></_>
    <_>
      <rects>
        <_>
          10 4 12 2 -1.</_>
        <_>
          10 5 12 1 2.</_></rects>
      <tilted>0</tilted></_>
    <_>
      <rects>
        <_>
          10 18 14 1 -1.</_>
        <_>
          17 18 7 1 2.</_></rects>
      <tilted>0</tilted></_>
    <_>
      <rects>
        <_>
          10 20 8 12 -1.</_>
        <_>
          10 26 8 6 2.</_></rects>
      <tilted>0</tilted></_>
    <_>
      <rects>
        <_>
          10 24 14 8 -1.</_>
        <_>
          10 28 14 4 2.</_></rects>
      <tilted>0</tilted></_>
    <_>
      <rects>
        <_>
          11 23 8 1 -1.</_>
        <_>
          11 23 4 1 2.</_></rects>
      <tilted>1</tilted></_>
    <_>
      <rects>
        <_>
          12 11 12 6 -1.</_>
        <_>
          10 13 12 2 3.</_></rects>
      <tilted>1</tilted></_>
    <_>
      <rects>
        <_>
          12 17 12 4 -1.</_>
        <_>
          18 17 6 4 2.</_></rects>
      <tilted>0</tilted></_>
    <_>
      <rects>
        <_>
          12 18 12 4 -1.</_>
        <_>
          18 18 6 4 2.</_></rects>
      <tilted>0</tilted></_>
    <_>
      <rects>
        <_>
          12 23 12 1 -1.</_>
        <_>
          15 23 6 1 2.</_></rects>
      <tilted>0</tilted></_>
    <_>
      <rects>
        <_>
          13 0 11 6 -1.</_>
        <_>
          11 2 11 2 3.</_></rects>
      <tilted>1</tilted></_>
    <_>
      <rects>
        <_>
          13 1 9 6 -1.</_>
        <_>
          16 4 3 6 3.</_></rects>
      <tilted>1</tilted></_>
    <_>
      <rects>
        <_>
          13 4 8 13 -1.</_>
        <_>
          13 4 4 13 2.</_></rects>
      <tilted>1</tilted></_>
    <_>
      <rects>
        <_>
          16 6 8 16 -1.</_>
        <_>
          18 8 4 16 2.</_></rects>
      <tilted>1</tilted></_>
    <_>
      <rects>
        <_>
          16 26 8 6 -1.</_>
        <_>
          16 28 8 2 2.</_></rects>
      <tilted>0</tilted></_>
    <_>
      <rects>
        <_>
          17 6 5 6 -1.</_>
        <_>
          17 9 5 3 2.</_></rects>
      <tilted>0</tilted></_>
    <_>
      <rects>
        <_>
          17 12 6 7 -1.</_>
        <_>
          20 12 3 7 2.</_></rects>
      <tilted>0</tilted></_>
    <_>
      <rects>
        <_>
          18 0 6 24 -1.</_>
        <_>
          18 12 6 12 2.</_></rects>
      <tilted>0</tilted></_>
    <_>
      <rects>
        <_>
          18 4 6 9 -1.</_>
        <_>
          18 4 3 9 2.</_></rects>
      <tilted>1</tilted></_>
    <_>
      <rects>
        <_>
          18 4 6 10 -1.</_>
        <_>
          18 4 3 10 2.</_></rects>
      <tilted>1</tilted></_>
    <_>
      <rects>
        <_>
          19 0 4 26 -1.</_>
        <_>
          19 13 4 13 2.</_></rects>
      <tilted>0</tilted></_>
    <_>
      <rects>
        <_>
          20 0 3 18 -1.</_>
        <_>
          21 0 1 18 2.</_></rects>
      <tilted>0</tilted></_>
    <_>
      <rects>
        <_>
          20 1 4 19 -1.</_>
        <_>
          20 1 2 19 2.</_></rects>
      <tilted>1</tilted></_>
    <_>
      <rects>
        <_>
          20 2 4 16 -1.</_>
        <_>
          20 2 2 16 2.</_></rects>
      <tilted>1</tilted></_>
    <_>
      <rects>
        <_>
          20 14 3 10 -1.</_>
        <_>
          20 19 3 5 2.</_></rects>
      <tilted>0</tilted></_>
    <_>
      <rects>
        <_>
          21 0 3 2 -1.</_>
        <_>
          22 0 1 2 2.</_></rects>
      <tilted>0</tilted></_>
    <_>
      <rects>
        <_>
          21 0 2 3 -1.</_>
        <_>
          21 1 2 1 2.</_></rects>
      <tilted>0</tilted></_>
    <_>
      <rects>
        <_>
          21 2 3 6 -1.</_>
        <_>
          22 2 1 6 2.</_></rects>
      <tilted>0</tilted></_>
    <_>
      <rects>
        <_>
          21 14 3 18 -1.</_>
        <_>
          21 20 3 6 2.</_></rects>
      <tilted>0</tilted></_>
    <_>
      <rects>
        <_>
          21 17 3 12 -1.</_>
        <_>
          22 21 1 4 9.</_></rects>
      <tilted>0</tilted></_>
    <_>
      <rects>
        <_>
          22 18 2 6 -1.</_>
        <_>
          22 18 2 3 2.</_></rects>
      <tilted>1</tilted></_>
    <_>
      <rects>
        <_>
          22 23 2 9 -1.</_>
        <_>
          22 26 2 3 2.</_></rects>
      <tilted>0</tilted></_>
    <_>
      <rects>
        <_>
          23 23 1 6 -1.</_>
        <_>
          23 26 1 3 2.</_></rects>
      <tilted>0</tilted></_></features></cascade>
</opencv_storage>
