<?xml version="1.0"?>
<opencv_storage>
<stage10>
  <maxWeakCount>8</maxWeakCount>
  <stageThreshold>-1.7502161264419556e+00</stageThreshold>
  <weakClassifiers>
    <_>
      <internalNodes>
        0 -1 192171 8.9557208120822906e-03</internalNodes>
      <leafValues>
        -5.1888668537139893e-01 6.2886595726013184e-01</leafValues></_>
    <_>
      <internalNodes>
        0 -1 23464 9.1733019798994064e-03</internalNodes>
      <leafValues>
        2.4380001425743103e-01 -8.7717086076736450e-01</leafValues></_>
    <_>
      <internalNodes>
        0 -1 16566 -1.4023815281689167e-02</internalNodes>
      <leafValues>
        2.2242569923400879e-01 -8.0948370695114136e-01</leafValues></_>
    <_>
      <internalNodes>
        0 -1 58895 -2.5559201836585999e-02</internalNodes>
      <leafValues>
        -7.8694611787796021e-01 2.6372256875038147e-01</leafValues></_>
    <_>
      <internalNodes>
        0 -1 21022 -2.0611209794878960e-02</internalNodes>
      <leafValues>
        2.7121010422706604e-01 -6.6677492856979370e-01</leafValues></_>
    <_>
      <internalNodes>
        0 -1 178365 -5.5190552957355976e-03</internalNodes>
      <leafValues>
        6.6292572021484375e-01 -3.0404418706893921e-01</leafValues></_>
    <_>
      <internalNodes>
        0 -1 201146 8.6805988103151321e-03</internalNodes>
      <leafValues>
        -6.3400691747665405e-01 3.6822977662086487e-01</leafValues></_>
    <_>
      <internalNodes>
        0 -1 191164 -2.1469403058290482e-02</internalNodes>
      <leafValues>
        8.2502347230911255e-01 -3.0801966786384583e-01</leafValues></_></weakClassifiers></stage10>
</opencv_storage>
