<?xml version="1.0"?>
<opencv_storage>
<stage9>
  <maxWeakCount>6</maxWeakCount>
  <stageThreshold>-1.0225365161895752e+00</stageThreshold>
  <weakClassifiers>
    <_>
      <internalNodes>
        0 -1 108036 -1.1636786162853241e-02</internalNodes>
      <leafValues>
        4.6575343608856201e-01 -5.9030836820602417e-01</leafValues></_>
    <_>
      <internalNodes>
        0 -1 39895 -4.9929711967706680e-03</internalNodes>
      <leafValues>
        2.8577366471290588e-01 -7.4567490816116333e-01</leafValues></_>
    <_>
      <internalNodes>
        0 -1 253 -3.2533630728721619e-02</internalNodes>
      <leafValues>
        3.7485715746879578e-01 -6.3324701786041260e-01</leafValues></_>
    <_>
      <internalNodes>
        0 -1 23729 -2.1068554371595383e-02</internalNodes>
      <leafValues>
        -9.4964486360549927e-01 2.5263461470603943e-01</leafValues></_>
    <_>
      <internalNodes>
        0 -1 47160 -6.6760383546352386e-02</internalNodes>
      <leafValues>
        1.9796104729175568e-01 -8.1754207611083984e-01</leafValues></_>
    <_>
      <internalNodes>
        0 -1 203890 2.1064084023237228e-02</internalNodes>
      <leafValues>
        -3.6578837037086487e-01 6.0710233449935913e-01</leafValues></_></weakClassifiers></stage9>
</opencv_storage>
