<?xml version="1.0"?>
<opencv_storage>
<cascade>
  <stageType>BOOST</stageType>
  <featureType>HAAR</featureType>
  <height>32</height>
  <width>24</width>
  <stageParams>
    <boostType>GAB</boostType>
    <minHitRate>9.9500000476837158e-01</minHitRate>
    <maxFalseAlarm>5.0000000000000000e-01</maxFalseAlarm>
    <weightTrimRate>9.4999999999999996e-01</weightTrimRate>
    <maxDepth>1</maxDepth>
    <maxWeakCount>100</maxWeakCount></stageParams>
  <featureParams>
    <maxCatCount>0</maxCatCount>
    <featSize>1</featSize>
    <mode>BASIC</mode></featureParams>
  <stageNum>20</stageNum>
  <stages>
    <!-- stage 0 -->
    <_>
      <maxWeakCount>2</maxWeakCount>
      <stageThreshold>-2.4045291543006897e-01</stageThreshold>
      <weakClassifiers>
        <_>
          <internalNodes>
            0 -1 49 -6.3082701526582241e-03</internalNodes>
          <leafValues>
            7.9342722892761230e-01 -9.0374332666397095e-01</leafValues></_>
        <_>
          <internalNodes>
            0 -1 90 -1.8716946244239807e-02</internalNodes>
          <leafValues>
            -9.6414989233016968e-01 6.6329038143157959e-01</leafValues></_></weakClassifiers></_>
    <!-- stage 1 -->
    <_>
      <maxWeakCount>3</maxWeakCount>
      <stageThreshold>-1.3515354394912720e+00</stageThreshold>
      <weakClassifiers>
        <_>
          <internalNodes>
            0 -1 67 -1.3809493184089661e-01</internalNodes>
          <leafValues>
            -9.5890408754348755e-01 5.5118107795715332e-01</leafValues></_>
        <_>
          <internalNodes>
            0 -1 87 3.9573386311531067e-04</internalNodes>
          <leafValues>
            -8.3500480651855469e-01 5.1963013410568237e-01</leafValues></_>
        <_>
          <internalNodes>
            0 -1 66 -1.0648344457149506e-01</internalNodes>
          <leafValues>
            4.4237348437309265e-01 -9.2255574464797974e-01</leafValues></_></weakClassifiers></_>
    <!-- stage 2 -->
    <_>
      <maxWeakCount>4</maxWeakCount>
      <stageThreshold>-3.9140775799751282e-01</stageThreshold>
      <weakClassifiers>
        <_>
          <internalNodes>
            0 -1 85 1.7729329410940409e-03</internalNodes>
          <leafValues>
            -8.3529412746429443e-01 6.1739128828048706e-01</leafValues></_>
        <_>
          <internalNodes>
            0 -1 41 -9.1135650873184204e-03</internalNodes>
          <leafValues>
            8.2761585712432861e-01 -5.4487359523773193e-01</leafValues></_>
        <_>
          <internalNodes>
            0 -1 0 -1.0588073171675205e-02</internalNodes>
          <leafValues>
            4.3314474821090698e-01 -9.4496405124664307e-01</leafValues></_>
        <_>
          <internalNodes>
            0 -1 14 -2.6427963376045227e-01</internalNodes>
          <leafValues>
            -1. 5.5561518669128418e-01</leafValues></_></weakClassifiers></_>
    <!-- stage 3 -->
    <_>
      <maxWeakCount>4</maxWeakCount>
      <stageThreshold>-4.6538782119750977e-01</stageThreshold>
      <weakClassifiers>
        <_>
          <internalNodes>
            0 -1 17 -1.3928811997175217e-02</internalNodes>
          <leafValues>
            6.1946904659271240e-01 -8.0459767580032349e-01</leafValues></_>
        <_>
          <internalNodes>
            0 -1 12 2.6987966150045395e-02</internalNodes>
          <leafValues>
            -5.3617048263549805e-01 8.2482331991195679e-01</leafValues></_>
        <_>
          <internalNodes>
            0 -1 108 -1.1478634551167488e-03</internalNodes>
          <leafValues>
            4.3393382430076599e-01 -9.6824038028717041e-01</leafValues></_>
        <_>
          <internalNodes>
            0 -1 75 3.7672321777790785e-03</internalNodes>
          <leafValues>
            -7.9089617729187012e-01 4.4144651293754578e-01</leafValues></_></weakClassifiers></_>
    <!-- stage 4 -->
    <_>
      <maxWeakCount>4</maxWeakCount>
      <stageThreshold>-1.1445465087890625e+00</stageThreshold>
      <weakClassifiers>
        <_>
          <internalNodes>
            0 -1 24 -3.0555835366249084e-01</internalNodes>
          <leafValues>
            4.9049431085586548e-01 -9.4160586595535278e-01</leafValues></_>
        <_>
          <internalNodes>
            0 -1 96 -1.3955232687294483e-02</internalNodes>
          <leafValues>
            -9.4626390933990479e-01 3.0228719115257263e-01</leafValues></_>
        <_>
          <internalNodes>
            0 -1 32 -7.5024664402008057e-03</internalNodes>
          <leafValues>
            3.7877368927001953e-01 -8.2837069034576416e-01</leafValues></_>
        <_>
          <internalNodes>
            0 -1 94 -3.7334510125219822e-03</internalNodes>
          <leafValues>
            3.6454954743385315e-01 -1.</leafValues></_></weakClassifiers></_>
    <!-- stage 5 -->
    <_>
      <maxWeakCount>6</maxWeakCount>
      <stageThreshold>-1.3832488059997559e+00</stageThreshold>
      <weakClassifiers>
        <_>
          <internalNodes>
            0 -1 10 -1.6157472506165504e-02</internalNodes>
          <leafValues>
            6.5217393636703491e-01 -5.5555558204650879e-01</leafValues></_>
        <_>
          <internalNodes>
            0 -1 86 6.1176074668765068e-03</internalNodes>
          <leafValues>
            -6.7367660999298096e-01 4.5460081100463867e-01</leafValues></_>
        <_>
          <internalNodes>
            0 -1 16 -2.5776833295822144e-02</internalNodes>
          <leafValues>
            -8.7458115816116333e-01 3.6524498462677002e-01</leafValues></_>
        <_>
          <internalNodes>
            0 -1 31 -8.4497686475515366e-03</internalNodes>
          <leafValues>
            3.4689128398895264e-01 -6.8502515554428101e-01</leafValues></_>
        <_>
          <internalNodes>
            0 -1 9 2.6881206780672073e-02</internalNodes>
          <leafValues>
            -3.3490622043609619e-01 9.3827062845230103e-01</leafValues></_>
        <_>
          <internalNodes>
            0 -1 84 2.4649384431540966e-03</internalNodes>
          <leafValues>
            -6.2852561473846436e-01 5.0066965818405151e-01</leafValues></_></weakClassifiers></_>
    <!-- stage 6 -->
    <_>
      <maxWeakCount>5</maxWeakCount>
      <stageThreshold>-9.6527391672134399e-01</stageThreshold>
      <weakClassifiers>
        <_>
          <internalNodes>
            0 -1 7 -3.6390042304992676e-01</internalNodes>
          <leafValues>
            4.3873518705368042e-01 -7.5510203838348389e-01</leafValues></_>
        <_>
          <internalNodes>
            0 -1 48 -2.3737717419862747e-02</internalNodes>
          <leafValues>
            8.1063508987426758e-01 -3.9171776175498962e-01</leafValues></_>
        <_>
          <internalNodes>
            0 -1 61 4.9001378938555717e-03</internalNodes>
          <leafValues>
            -6.0164290666580200e-01 5.0952106714248657e-01</leafValues></_>
        <_>
          <internalNodes>
            0 -1 38 -7.2864154353737831e-03</internalNodes>
          <leafValues>
            4.4264942407608032e-01 -6.3726472854614258e-01</leafValues></_>
        <_>
          <internalNodes>
            0 -1 23 -3.9511226117610931e-02</internalNodes>
          <leafValues>
            -8.6235386133193970e-01 3.4053936600685120e-01</leafValues></_></weakClassifiers></_>
    <!-- stage 7 -->
    <_>
      <maxWeakCount>5</maxWeakCount>
      <stageThreshold>-3.3792588114738464e-01</stageThreshold>
      <weakClassifiers>
        <_>
          <internalNodes>
            0 -1 40 -7.2344732470810413e-03</internalNodes>
          <leafValues>
            6.9047617912292480e-01 -5.0000000000000000e-01</leafValues></_>
        <_>
          <internalNodes>
            0 -1 97 -7.4593289755284786e-03</internalNodes>
          <leafValues>
            3.0670654773712158e-01 -9.8560583591461182e-01</leafValues></_>
        <_>
          <internalNodes>
            0 -1 50 -1.6306878533214331e-03</internalNodes>
          <leafValues>
            5.3063231706619263e-01 -5.1807129383087158e-01</leafValues></_>
        <_>
          <internalNodes>
            0 -1 98 -8.5344780236482620e-03</internalNodes>
          <leafValues>
            -9.4496035575866699e-01 3.5755875706672668e-01</leafValues></_>
        <_>
          <internalNodes>
            0 -1 74 3.2084779813885689e-03</internalNodes>
          <leafValues>
            -8.1332463026046753e-01 2.6969560980796814e-01</leafValues></_></weakClassifiers></_>
    <!-- stage 8 -->
    <_>
      <maxWeakCount>6</maxWeakCount>
      <stageThreshold>-6.7008543014526367e-01</stageThreshold>
      <weakClassifiers>
        <_>
          <internalNodes>
            0 -1 62 -7.6314699836075306e-03</internalNodes>
          <leafValues>
            7.5939851999282837e-01 -3.7827715277671814e-01</leafValues></_>
        <_>
          <internalNodes>
            0 -1 93 -1.5817927196621895e-02</internalNodes>
          <leafValues>
            -7.4810332059860229e-01 3.6222559213638306e-01</leafValues></_>
        <_>
          <internalNodes>
            0 -1 71 -3.5206750035285950e-03</internalNodes>
          <leafValues>
            5.6718593835830688e-01 -4.2733591794967651e-01</leafValues></_>
        <_>
          <internalNodes>
            0 -1 79 5.9520089998841286e-03</internalNodes>
          <leafValues>
            -5.6375056505203247e-01 3.8282516598701477e-01</leafValues></_>
        <_>
          <internalNodes>
            0 -1 22 9.1144498437643051e-03</internalNodes>
          <leafValues>
            3.0253878235816956e-01 -8.6599093675613403e-01</leafValues></_>
        <_>
          <internalNodes>
            0 -1 43 -3.1053503975272179e-02</internalNodes>
          <leafValues>
            -9.8533982038497925e-01 2.0852166414260864e-01</leafValues></_></weakClassifiers></_>
    <!-- stage 9 -->
    <_>
      <maxWeakCount>5</maxWeakCount>
      <stageThreshold>-8.5942888259887695e-01</stageThreshold>
      <weakClassifiers>
        <_>
          <internalNodes>
            0 -1 8 -1.2569787912070751e-02</internalNodes>
          <leafValues>
            3.7777778506278992e-01 -7.8461539745330811e-01</leafValues></_>
        <_>
          <internalNodes>
            0 -1 18 -1.2462300248444080e-02</internalNodes>
          <leafValues>
            3.7270033359527588e-01 -7.4132013320922852e-01</leafValues></_>
        <_>
          <internalNodes>
            0 -1 63 -5.8239675126969814e-03</internalNodes>
          <leafValues>
            6.8144327402114868e-01 -4.9532490968704224e-01</leafValues></_>
        <_>
          <internalNodes>
            0 -1 91 1.0364046320319176e-02</internalNodes>
          <leafValues>
            -3.5800239443778992e-01 6.8772310018539429e-01</leafValues></_>
        <_>
          <internalNodes>
            0 -1 47 5.6908722035586834e-03</internalNodes>
          <leafValues>
            -5.7060283422470093e-01 4.0581345558166504e-01</leafValues></_></weakClassifiers></_>
    <!-- stage 10 -->
    <_>
      <maxWeakCount>5</maxWeakCount>
      <stageThreshold>-8.5509121417999268e-01</stageThreshold>
      <weakClassifiers>
        <_>
          <internalNodes>
            0 -1 4 -7.8716883435845375e-03</internalNodes>
          <leafValues>
            3.7857142090797424e-01 -8.8333332538604736e-01</leafValues></_>
        <_>
          <internalNodes>
            0 -1 56 -6.5265838056802750e-03</internalNodes>
          <leafValues>
            -8.8680171966552734e-01 2.1189950406551361e-01</leafValues></_>
        <_>
          <internalNodes>
            0 -1 29 -1.1381912976503372e-02</internalNodes>
          <leafValues>
            5.2866673469543457e-01 -5.3000122308731079e-01</leafValues></_>
        <_>
          <internalNodes>
            0 -1 55 6.6243708133697510e-03</internalNodes>
          <leafValues>
            -5.5133855342864990e-01 4.5225900411605835e-01</leafValues></_>
        <_>
          <internalNodes>
            0 -1 77 3.3433765172958374e-02</internalNodes>
          <leafValues>
            -3.6422237753868103e-01 8.0308252573013306e-01</leafValues></_></weakClassifiers></_>
    <!-- stage 11 -->
    <_>
      <maxWeakCount>7</maxWeakCount>
      <stageThreshold>-5.8082699775695801e-01</stageThreshold>
      <weakClassifiers>
        <_>
          <internalNodes>
            0 -1 73 1.1558137834072113e-02</internalNodes>
          <leafValues>
            -6.1783438920974731e-01 3.9917695522308350e-01</leafValues></_>
        <_>
          <internalNodes>
            0 -1 57 -9.3493517488241196e-03</internalNodes>
          <leafValues>
            3.6472061276435852e-01 -6.9457238912582397e-01</leafValues></_>
        <_>
          <internalNodes>
            0 -1 26 -3.5097230225801468e-02</internalNodes>
          <leafValues>
            2.5994512438774109e-01 -7.9117327928543091e-01</leafValues></_>
        <_>
          <internalNodes>
            0 -1 69 -2.5034237653017044e-02</internalNodes>
          <leafValues>
            6.0425800085067749e-01 -4.6216565370559692e-01</leafValues></_>
        <_>
          <internalNodes>
            0 -1 68 1.1028232984244823e-02</internalNodes>
          <leafValues>
            -6.4099347591400146e-01 3.3873167634010315e-01</leafValues></_>
        <_>
          <internalNodes>
            0 -1 3 -8.1702731549739838e-03</internalNodes>
          <leafValues>
            2.8711709380149841e-01 -7.8377217054367065e-01</leafValues></_>
        <_>
          <internalNodes>
            0 -1 92 5.7201716117560863e-03</internalNodes>
          <leafValues>
            -6.2348359823226929e-01 3.5365486145019531e-01</leafValues></_></weakClassifiers></_>
    <!-- stage 12 -->
    <_>
      <maxWeakCount>7</maxWeakCount>
      <stageThreshold>-7.1465682983398438e-01</stageThreshold>
      <weakClassifiers>
        <_>
          <internalNodes>
            0 -1 102 -1.1150617152452469e-02</internalNodes>
          <leafValues>
            -6.9343066215515137e-01 3.6121672391891479e-01</leafValues></_>
        <_>
          <internalNodes>
            0 -1 99 -5.1401086151599884e-02</internalNodes>
          <leafValues>
            1.9816508889198303e-01 -8.7007027864456177e-01</leafValues></_>
        <_>
          <internalNodes>
            0 -1 54 -3.5875506699085236e-02</internalNodes>
          <leafValues>
            7.8265488147735596e-01 -2.7982610464096069e-01</leafValues></_>
        <_>
          <internalNodes>
            0 -1 28 -1.0975634213536978e-03</internalNodes>
          <leafValues>
            -4.6318119764328003e-01 4.4211575388908386e-01</leafValues></_>
        <_>
          <internalNodes>
            0 -1 33 -6.9325868971645832e-03</internalNodes>
          <leafValues>
            1.8930988013744354e-01 -9.0254461765289307e-01</leafValues></_>
        <_>
          <internalNodes>
            0 -1 95 -7.8309267759323120e-02</internalNodes>
          <leafValues>
            -7.6600879430770874e-01 2.1994192898273468e-01</leafValues></_>
        <_>
          <internalNodes>
            0 -1 101 -8.2313623279333115e-03</internalNodes>
          <leafValues>
            1.9501799345016479e-01 -8.8741111755371094e-01</leafValues></_></weakClassifiers></_>
    <!-- stage 13 -->
    <_>
      <maxWeakCount>6</maxWeakCount>
      <stageThreshold>-4.0866073966026306e-01</stageThreshold>
      <weakClassifiers>
        <_>
          <internalNodes>
            0 -1 36 -1.7085543274879456e-01</internalNodes>
          <leafValues>
            6.2285715341567993e-01 -4.8444443941116333e-01</leafValues></_>
        <_>
          <internalNodes>
            0 -1 106 -7.5621169526129961e-04</internalNodes>
          <leafValues>
            -6.8216246366500854e-01 3.6882320046424866e-01</leafValues></_>
        <_>
          <internalNodes>
            0 -1 34 -1.4167155139148235e-02</internalNodes>
          <leafValues>
            -7.8632915019989014e-01 2.9607108235359192e-01</leafValues></_>
        <_>
          <internalNodes>
            0 -1 21 -1.2629564153030515e-03</internalNodes>
          <leafValues>
            2.2245937585830688e-01 -9.4849985837936401e-01</leafValues></_>
        <_>
          <internalNodes>
            0 -1 53 1.3945008628070354e-02</internalNodes>
          <leafValues>
            -3.8432046771049500e-01 7.1684658527374268e-01</leafValues></_>
        <_>
          <internalNodes>
            0 -1 52 -1.1364502832293510e-02</internalNodes>
          <leafValues>
            7.5879949331283569e-01 -3.5745730996131897e-01</leafValues></_></weakClassifiers></_>
    <!-- stage 14 -->
    <_>
      <maxWeakCount>7</maxWeakCount>
      <stageThreshold>-7.8028494119644165e-01</stageThreshold>
      <weakClassifiers>
        <_>
          <internalNodes>
            0 -1 35 -5.0435906648635864e-01</internalNodes>
          <leafValues>
            5.4189944267272949e-01 -4.3891403079032898e-01</leafValues></_>
        <_>
          <internalNodes>
            0 -1 42 2.5511639192700386e-02</internalNodes>
          <leafValues>
            -3.0493274331092834e-01 7.7608519792556763e-01</leafValues></_>
        <_>
          <internalNodes>
            0 -1 76 -1.6489289700984955e-02</internalNodes>
          <leafValues>
            -8.9887118339538574e-01 2.3956592381000519e-01</leafValues></_>
        <_>
          <internalNodes>
            0 -1 103 -1.7029783921316266e-03</internalNodes>
          <leafValues>
            2.6226422190666199e-01 -7.1573305130004883e-01</leafValues></_>
        <_>
          <internalNodes>
            0 -1 82 -2.4442553520202637e-02</internalNodes>
          <leafValues>
            7.0056170225143433e-01 -3.3018213510513306e-01</leafValues></_>
        <_>
          <internalNodes>
            0 -1 19 4.8270568368025124e-04</internalNodes>
          <leafValues>
            2.8708013892173767e-01 -9.0829181671142578e-01</leafValues></_>
        <_>
          <internalNodes>
            0 -1 78 3.5079073160886765e-02</internalNodes>
          <leafValues>
            -2.8060781955718994e-01 8.9213937520980835e-01</leafValues></_></weakClassifiers></_>
    <!-- stage 15 -->
    <_>
      <maxWeakCount>7</maxWeakCount>
      <stageThreshold>-7.8888136148452759e-01</stageThreshold>
      <weakClassifiers>
        <_>
          <internalNodes>
            0 -1 44 -1.2478243559598923e-02</internalNodes>
          <leafValues>
            7.3983740806579590e-01 -3.2851985096931458e-01</leafValues></_>
        <_>
          <internalNodes>
            0 -1 6 -4.1598102450370789e-01</internalNodes>
          <leafValues>
            3.1881731748580933e-01 -6.8686151504516602e-01</leafValues></_>
        <_>
          <internalNodes>
            0 -1 11 -5.8558393269777298e-02</internalNodes>
          <leafValues>
            2.4244233965873718e-01 -7.6178824901580811e-01</leafValues></_>
        <_>
          <internalNodes>
            0 -1 45 -2.9497891664505005e-01</internalNodes>
          <leafValues>
            -7.5619429349899292e-01 2.5493836402893066e-01</leafValues></_>
        <_>
          <internalNodes>
            0 -1 83 -8.0882920883595943e-04</internalNodes>
          <leafValues>
            4.9951457977294922e-01 -3.9372316002845764e-01</leafValues></_>
        <_>
          <internalNodes>
            0 -1 72 2.7218325994908810e-03</internalNodes>
          <leafValues>
            -2.5330489873886108e-01 7.4472755193710327e-01</leafValues></_>
        <_>
          <internalNodes>
            0 -1 81 6.0151964426040649e-03</internalNodes>
          <leafValues>
            -6.2333327531814575e-01 3.8289839029312134e-01</leafValues></_></weakClassifiers></_>
    <!-- stage 16 -->
    <_>
      <maxWeakCount>7</maxWeakCount>
      <stageThreshold>-1.1014826297760010e+00</stageThreshold>
      <weakClassifiers>
        <_>
          <internalNodes>
            0 -1 65 3.3688743133097887e-03</internalNodes>
          <leafValues>
            2.9491525888442993e-01 -8.2857143878936768e-01</leafValues></_>
        <_>
          <internalNodes>
            0 -1 39 -6.3040666282176971e-03</internalNodes>
          <leafValues>
            3.8504123687744141e-01 -5.8109843730926514e-01</leafValues></_>
        <_>
          <internalNodes>
            0 -1 1 -9.1240387409925461e-03</internalNodes>
          <leafValues>
            7.7122884988784790e-01 -3.3470591902732849e-01</leafValues></_>
        <_>
          <internalNodes>
            0 -1 88 -5.7096900418400764e-03</internalNodes>
          <leafValues>
            -9.3406814336776733e-01 2.2264769673347473e-01</leafValues></_>
        <_>
          <internalNodes>
            0 -1 30 -1.7998698167502880e-03</internalNodes>
          <leafValues>
            2.9243543744087219e-01 -7.4203848838806152e-01</leafValues></_>
        <_>
          <internalNodes>
            0 -1 46 -1.2042820453643799e-02</internalNodes>
          <leafValues>
            4.7785472869873047e-01 -4.6435725688934326e-01</leafValues></_>
        <_>
          <internalNodes>
            0 -1 25 -1.4052715152502060e-02</internalNodes>
          <leafValues>
            5.0315457582473755e-01 -5.4296851158142090e-01</leafValues></_></weakClassifiers></_>
    <!-- stage 17 -->
    <_>
      <maxWeakCount>6</maxWeakCount>
      <stageThreshold>-1.2179057598114014e+00</stageThreshold>
      <weakClassifiers>
        <_>
          <internalNodes>
            0 -1 13 -1.7999830842018127e-01</internalNodes>
          <leafValues>
            -5.7831323146820068e-01 4.1025641560554504e-01</leafValues></_>
        <_>
          <internalNodes>
            0 -1 105 -1.7898911610245705e-03</internalNodes>
          <leafValues>
            2.9834976792335510e-01 -8.2373559474945068e-01</leafValues></_>
        <_>
          <internalNodes>
            0 -1 104 8.2565459888428450e-04</internalNodes>
          <leafValues>
            3.6787280440330505e-01 -6.2243396043777466e-01</leafValues></_>
        <_>
          <internalNodes>
            0 -1 37 -2.6540113613009453e-03</internalNodes>
          <leafValues>
            5.4079264402389526e-01 -4.4984260201454163e-01</leafValues></_>
        <_>
          <internalNodes>
            0 -1 60 3.5049356520175934e-02</internalNodes>
          <leafValues>
            -2.2886823117733002e-01 9.7653853893280029e-01</leafValues></_>
        <_>
          <internalNodes>
            0 -1 20 -1.3823220506310463e-03</internalNodes>
          <leafValues>
            -7.1234655380249023e-01 3.6320248246192932e-01</leafValues></_></weakClassifiers></_>
    <!-- stage 18 -->
    <_>
      <maxWeakCount>7</maxWeakCount>
      <stageThreshold>-1.2091218233108521e+00</stageThreshold>
      <weakClassifiers>
        <_>
          <internalNodes>
            0 -1 70 6.1864801682531834e-03</internalNodes>
          <leafValues>
            -2.6213592290878296e-01 8.9010989665985107e-01</leafValues></_>
        <_>
          <internalNodes>
            0 -1 2 1.0633785277605057e-03</internalNodes>
          <leafValues>
            2.7832856774330139e-01 -8.9502161741256714e-01</leafValues></_>
        <_>
          <internalNodes>
            0 -1 5 -5.2919983863830566e-01</internalNodes>
          <leafValues>
            -9.8858624696731567e-01 1.5799655020236969e-01</leafValues></_>
        <_>
          <internalNodes>
            0 -1 58 -1.7286869883537292e-01</internalNodes>
          <leafValues>
            1.8697388470172882e-01 -8.2267308235168457e-01</leafValues></_>
        <_>
          <internalNodes>
            0 -1 107 -4.1366321966052055e-03</internalNodes>
          <leafValues>
            2.4021223187446594e-01 -8.7518060207366943e-01</leafValues></_>
        <_>
          <internalNodes>
            0 -1 64 -5.2293743938207626e-02</internalNodes>
          <leafValues>
            -3.3638983964920044e-01 7.5161552429199219e-01</leafValues></_>
        <_>
          <internalNodes>
            0 -1 15 -2.0242869504727423e-04</internalNodes>
          <leafValues>
            -4.6446037292480469e-01 4.7088336944580078e-01</leafValues></_></weakClassifiers></_>
    <!-- stage 19 -->
    <_>
      <maxWeakCount>6</maxWeakCount>
      <stageThreshold>-5.9980893135070801e-01</stageThreshold>
      <weakClassifiers>
        <_>
          <internalNodes>
            0 -1 59 -3.0132877826690674e-01</internalNodes>
          <leafValues>
            3.1914892792701721e-01 -7.6271188259124756e-01</leafValues></_>
        <_>
          <internalNodes>
            0 -1 89 -8.7447255849838257e-02</internalNodes>
          <leafValues>
            -6.8676549196243286e-01 3.2037729024887085e-01</leafValues></_>
        <_>
          <internalNodes>
            0 -1 80 -5.6701721623539925e-03</internalNodes>
          <leafValues>
            8.1704312562942505e-01 -2.9342496395111084e-01</leafValues></_>
        <_>
          <internalNodes>
            0 -1 100 5.2648643031716347e-04</internalNodes>
          <leafValues>
            3.1251758337020874e-01 -7.5939583778381348e-01</leafValues></_>
        <_>
          <internalNodes>
            0 -1 27 -1.9317646324634552e-01</internalNodes>
          <leafValues>
            5.2680987119674683e-01 -4.3946984410285950e-01</leafValues></_>
        <_>
          <internalNodes>
            0 -1 51 -8.9807732729241252e-04</internalNodes>
          <leafValues>
            -6.5775853395462036e-01 3.6853656172752380e-01</leafValues></_></weakClassifiers></_></stages>
  <features>
    <_>
      <rects>
        <_>
          0 0 3 3 -1.</_>
        <_>
          1 0 1 3 2.</_></rects>
      <tilted>0</tilted></_>
    <_>
      <rects>
        <_>
          0 0 1 8 -1.</_>
        <_>
          0 4 1 4 2.</_></rects>
      <tilted>0</tilted></_>
    <_>
      <rects>
        <_>
          0 0 2 5 -1.</_>
        <_>
          1 0 1 5 2.</_></rects>
      <tilted>0</tilted></_>
    <_>
      <rects>
        <_>
          0 0 1 26 -1.</_>
        <_>
          0 13 1 13 2.</_></rects>
      <tilted>0</tilted></_>
    <_>
      <rects>
        <_>
          0 0 6 1 -1.</_>
        <_>
          2 0 2 1 2.</_></rects>
      <tilted>0</tilted></_>
    <_>
      <rects>
        <_>
          0 0 18 21 -1.</_>
        <_>
          0 7 18 7 2.</_></rects>
      <tilted>0</tilted></_>
    <_>
      <rects>
        <_>
          0 0 23 30 -1.</_>
        <_>
          0 15 23 15 2.</_></rects>
      <tilted>0</tilted></_>
    <_>
      <rects>
        <_>
          0 0 24 20 -1.</_>
        <_>
          0 10 24 10 2.</_></rects>
      <tilted>0</tilted></_>
    <_>
      <rects>
        <_>
          0 1 3 3 -1.</_>
        <_>
          1 1 1 3 2.</_></rects>
      <tilted>0</tilted></_>
    <_>
      <rects>
        <_>
          0 1 12 6 -1.</_>
        <_>
          0 1 6 3 2.</_>
        <_>
          6 4 6 3 2.</_></rects>
      <tilted>0</tilted></_>
    <_>
      <rects>
        <_>
          0 1 14 4 -1.</_>
        <_>
          7 1 7 4 2.</_></rects>
      <tilted>0</tilted></_>
    <_>
      <rects>
        <_>
          0 2 3 21 -1.</_>
        <_>
          0 9 3 7 2.</_></rects>
      <tilted>0</tilted></_>
    <_>
      <rects>
        <_>
          0 2 14 10 -1.</_>
        <_>
          0 2 7 5 2.</_>
        <_>
          7 7 7 5 2.</_></rects>
      <tilted>0</tilted></_>
    <_>
      <rects>
        <_>
          0 3 14 12 -1.</_>
        <_>
          0 7 14 4 2.</_></rects>
      <tilted>0</tilted></_>
    <_>
      <rects>
        <_>
          0 4 17 12 -1.</_>
        <_>
          0 8 17 4 2.</_></rects>
      <tilted>0</tilted></_>
    <_>
      <rects>
        <_>
          0 5 3 2 -1.</_>
        <_>
          0 6 3 1 2.</_></rects>
      <tilted>0</tilted></_>
    <_>
      <rects>
        <_>
          0 14 2 12 -1.</_>
        <_>
          0 18 2 4 2.</_></rects>
      <tilted>0</tilted></_>
    <_>
      <rects>
        <_>
          0 14 14 7 -1.</_>
        <_>
          7 14 7 7 2.</_></rects>
      <tilted>0</tilted></_>
    <_>
      <rects>
        <_>
          0 16 16 4 -1.</_>
        <_>
          8 16 8 4 2.</_></rects>
      <tilted>0</tilted></_>
    <_>
      <rects>
        <_>
          0 18 2 5 -1.</_>
        <_>
          1 18 1 5 2.</_></rects>
      <tilted>0</tilted></_>
    <_>
      <rects>
        <_>
          0 20 2 12 -1.</_>
        <_>
          1 20 1 12 2.</_></rects>
      <tilted>0</tilted></_>
    <_>
      <rects>
        <_>
          0 21 1 3 -1.</_>
        <_>
          0 22 1 1 2.</_></rects>
      <tilted>0</tilted></_>
    <_>
      <rects>
        <_>
          0 28 20 3 -1.</_>
        <_>
          10 28 10 3 2.</_></rects>
      <tilted>0</tilted></_>
    <_>
      <rects>
        <_>
          0 29 16 3 -1.</_>
        <_>
          0 30 16 1 2.</_></rects>
      <tilted>0</tilted></_>
    <_>
      <rects>
        <_>
          1 0 23 32 -1.</_>
        <_>
          1 16 23 16 2.</_></rects>
      <tilted>0</tilted></_>
    <_>
      <rects>
        <_>
          1 1 10 10 -1.</_>
        <_>
          6 1 5 10 2.</_></rects>
      <tilted>0</tilted></_>
    <_>
      <rects>
        <_>
          1 2 5 6 -1.</_>
        <_>
          1 4 5 2 2.</_></rects>
      <tilted>0</tilted></_>
    <_>
      <rects>
        <_>
          1 3 15 18 -1.</_>
        <_>
          1 12 15 9 2.</_></rects>
      <tilted>0</tilted></_>
    <_>
      <rects>
        <_>
          1 4 10 2 -1.</_>
        <_>
          1 5 10 1 2.</_></rects>
      <tilted>0</tilted></_>
    <_>
      <rects>
        <_>
          1 9 12 8 -1.</_>
        <_>
          1 9 6 4 2.</_>
        <_>
          7 13 6 4 2.</_></rects>
      <tilted>0</tilted></_>
    <_>
      <rects>
        <_>
          1 12 3 1 -1.</_>
        <_>
          2 12 1 1 2.</_></rects>
      <tilted>0</tilted></_>
    <_>
      <rects>
        <_>
          1 13 18 8 -1.</_>
        <_>
          10 13 9 8 2.</_></rects>
      <tilted>0</tilted></_>
    <_>
      <rects>
        <_>
          1 15 14 4 -1.</_>
        <_>
          8 15 7 4 2.</_></rects>
      <tilted>0</tilted></_>
    <_>
      <rects>
        <_>
          1 17 1 15 -1.</_>
        <_>
          1 22 1 5 2.</_></rects>
      <tilted>0</tilted></_>
    <_>
      <rects>
        <_>
          1 26 3 6 -1.</_>
        <_>
          2 26 1 6 2.</_></rects>
      <tilted>0</tilted></_>
    <_>
      <rects>
        <_>
          2 0 22 24 -1.</_>
        <_>
          2 12 22 12 2.</_></rects>
      <tilted>0</tilted></_>
    <_>
      <rects>
        <_>
          2 5 18 16 -1.</_>
        <_>
          2 13 18 8 2.</_></rects>
      <tilted>0</tilted></_>
    <_>
      <rects>
        <_>
          2 10 8 4 -1.</_>
        <_>
          2 10 4 2 2.</_>
        <_>
          6 12 4 2 2.</_></rects>
      <tilted>0</tilted></_>
    <_>
      <rects>
        <_>
          2 16 14 3 -1.</_>
        <_>
          9 16 7 3 2.</_></rects>
      <tilted>0</tilted></_>
    <_>
      <rects>
        <_>
          2 17 14 2 -1.</_>
        <_>
          9 17 7 2 2.</_></rects>
      <tilted>0</tilted></_>
    <_>
      <rects>
        <_>
          3 0 17 2 -1.</_>
        <_>
          3 1 17 1 2.</_></rects>
      <tilted>0</tilted></_>
    <_>
      <rects>
        <_>
          3 0 18 2 -1.</_>
        <_>
          3 1 18 1 2.</_></rects>
      <tilted>0</tilted></_>
    <_>
      <rects>
        <_>
          3 1 10 8 -1.</_>
        <_>
          3 1 5 4 2.</_>
        <_>
          8 5 5 4 2.</_></rects>
      <tilted>0</tilted></_>
    <_>
      <rects>
        <_>
          3 11 4 6 -1.</_>
        <_>
          3 13 4 2 2.</_></rects>
      <tilted>0</tilted></_>
    <_>
      <rects>
        <_>
          4 0 14 2 -1.</_>
        <_>
          4 1 14 1 2.</_></rects>
      <tilted>0</tilted></_>
    <_>
      <rects>
        <_>
          4 2 15 18 -1.</_>
        <_>
          4 8 15 6 2.</_></rects>
      <tilted>0</tilted></_>
    <_>
      <rects>
        <_>
          4 5 4 8 -1.</_>
        <_>
          4 9 4 4 2.</_></rects>
      <tilted>0</tilted></_>
    <_>
      <rects>
        <_>
          4 26 19 6 -1.</_>
        <_>
          4 29 19 3 2.</_></rects>
      <tilted>0</tilted></_>
    <_>
      <rects>
        <_>
          5 0 8 8 -1.</_>
        <_>
          9 0 4 8 2.</_></rects>
      <tilted>0</tilted></_>
    <_>
      <rects>
        <_>
          5 0 13 4 -1.</_>
        <_>
          5 2 13 2 2.</_></rects>
      <tilted>0</tilted></_>
    <_>
      <rects>
        <_>
          5 16 4 4 -1.</_>
        <_>
          7 16 2 4 2.</_></rects>
      <tilted>0</tilted></_>
    <_>
      <rects>
        <_>
          6 0 18 2 -1.</_>
        <_>
          6 0 9 1 2.</_>
        <_>
          15 1 9 1 2.</_></rects>
      <tilted>0</tilted></_>
    <_>
      <rects>
        <_>
          6 1 6 10 -1.</_>
        <_>
          6 1 3 5 2.</_>
        <_>
          9 6 3 5 2.</_></rects>
      <tilted>0</tilted></_>
    <_>
      <rects>
        <_>
          6 1 6 12 -1.</_>
        <_>
          6 1 3 6 2.</_>
        <_>
          9 7 3 6 2.</_></rects>
      <tilted>0</tilted></_>
    <_>
      <rects>
        <_>
          6 2 8 7 -1.</_>
        <_>
          10 2 4 7 2.</_></rects>
      <tilted>0</tilted></_>
    <_>
      <rects>
        <_>
          6 26 16 6 -1.</_>
        <_>
          6 29 16 3 2.</_></rects>
      <tilted>0</tilted></_>
    <_>
      <rects>
        <_>
          6 29 18 2 -1.</_>
        <_>
          15 29 9 2 2.</_></rects>
      <tilted>0</tilted></_>
    <_>
      <rects>
        <_>
          7 0 12 4 -1.</_>
        <_>
          7 2 12 2 2.</_></rects>
      <tilted>0</tilted></_>
    <_>
      <rects>
        <_>
          7 0 12 24 -1.</_>
        <_>
          7 12 12 12 2.</_></rects>
      <tilted>0</tilted></_>
    <_>
      <rects>
        <_>
          7 0 17 24 -1.</_>
        <_>
          7 12 17 12 2.</_></rects>
      <tilted>0</tilted></_>
    <_>
      <rects>
        <_>
          7 2 8 10 -1.</_>
        <_>
          7 2 4 5 2.</_>
        <_>
          11 7 4 5 2.</_></rects>
      <tilted>0</tilted></_>
    <_>
      <rects>
        <_>
          7 26 14 6 -1.</_>
        <_>
          7 29 14 3 2.</_></rects>
      <tilted>0</tilted></_>
    <_>
      <rects>
        <_>
          8 0 8 2 -1.</_>
        <_>
          8 1 8 1 2.</_></rects>
      <tilted>0</tilted></_>
    <_>
      <rects>
        <_>
          8 0 10 2 -1.</_>
        <_>
          8 1 10 1 2.</_></rects>
      <tilted>0</tilted></_>
    <_>
      <rects>
        <_>
          8 2 12 4 -1.</_>
        <_>
          12 2 4 4 2.</_></rects>
      <tilted>0</tilted></_>
    <_>
      <rects>
        <_>
          8 31 16 1 -1.</_>
        <_>
          16 31 8 1 2.</_></rects>
      <tilted>0</tilted></_>
    <_>
      <rects>
        <_>
          9 2 15 16 -1.</_>
        <_>
          9 10 15 8 2.</_></rects>
      <tilted>0</tilted></_>
    <_>
      <rects>
        <_>
          9 13 14 12 -1.</_>
        <_>
          9 17 14 4 2.</_></rects>
      <tilted>0</tilted></_>
    <_>
      <rects>
        <_>
          9 15 14 6 -1.</_>
        <_>
          16 15 7 6 2.</_></rects>
      <tilted>0</tilted></_>
    <_>
      <rects>
        <_>
          10 0 10 14 -1.</_>
        <_>
          10 0 5 7 2.</_>
        <_>
          15 7 5 7 2.</_></rects>
      <tilted>0</tilted></_>
    <_>
      <rects>
        <_>
          10 3 6 4 -1.</_>
        <_>
          10 5 6 2 2.</_></rects>
      <tilted>0</tilted></_>
    <_>
      <rects>
        <_>
          10 6 10 4 -1.</_>
        <_>
          10 6 5 2 2.</_>
        <_>
          15 8 5 2 2.</_></rects>
      <tilted>0</tilted></_>
    <_>
      <rects>
        <_>
          10 18 4 7 -1.</_>
        <_>
          12 18 2 7 2.</_></rects>
      <tilted>0</tilted></_>
    <_>
      <rects>
        <_>
          10 18 9 14 -1.</_>
        <_>
          10 25 9 7 2.</_></rects>
      <tilted>0</tilted></_>
    <_>
      <rects>
        <_>
          10 20 7 12 -1.</_>
        <_>
          10 26 7 6 2.</_></rects>
      <tilted>0</tilted></_>
    <_>
      <rects>
        <_>
          10 22 9 10 -1.</_>
        <_>
          10 27 9 5 2.</_></rects>
      <tilted>0</tilted></_>
    <_>
      <rects>
        <_>
          10 30 9 2 -1.</_>
        <_>
          13 30 3 2 2.</_></rects>
      <tilted>0</tilted></_>
    <_>
      <rects>
        <_>
          11 2 8 8 -1.</_>
        <_>
          15 2 4 8 2.</_></rects>
      <tilted>0</tilted></_>
    <_>
      <rects>
        <_>
          11 3 6 26 -1.</_>
        <_>
          11 3 3 13 2.</_>
        <_>
          14 16 3 13 2.</_></rects>
      <tilted>0</tilted></_>
    <_>
      <rects>
        <_>
          11 18 12 2 -1.</_>
        <_>
          17 18 6 2 2.</_></rects>
      <tilted>0</tilted></_>
    <_>
      <rects>
        <_>
          11 22 8 4 -1.</_>
        <_>
          15 22 4 4 2.</_></rects>
      <tilted>0</tilted></_>
    <_>
      <rects>
        <_>
          11 23 10 8 -1.</_>
        <_>
          11 27 10 4 2.</_></rects>
      <tilted>0</tilted></_>
    <_>
      <rects>
        <_>
          12 2 6 12 -1.</_>
        <_>
          12 2 3 6 2.</_>
        <_>
          15 8 3 6 2.</_></rects>
      <tilted>0</tilted></_>
    <_>
      <rects>
        <_>
          12 7 6 2 -1.</_>
        <_>
          12 7 3 1 2.</_>
        <_>
          15 8 3 1 2.</_></rects>
      <tilted>0</tilted></_>
    <_>
      <rects>
        <_>
          12 10 8 8 -1.</_>
        <_>
          12 10 4 4 2.</_>
        <_>
          16 14 4 4 2.</_></rects>
      <tilted>0</tilted></_>
    <_>
      <rects>
        <_>
          12 17 12 2 -1.</_>
        <_>
          18 17 6 2 2.</_></rects>
      <tilted>0</tilted></_>
    <_>
      <rects>
        <_>
          12 18 12 4 -1.</_>
        <_>
          18 18 6 4 2.</_></rects>
      <tilted>0</tilted></_>
    <_>
      <rects>
        <_>
          14 19 10 1 -1.</_>
        <_>
          19 19 5 1 2.</_></rects>
      <tilted>0</tilted></_>
    <_>
      <rects>
        <_>
          14 31 6 1 -1.</_>
        <_>
          16 31 2 1 2.</_></rects>
      <tilted>0</tilted></_>
    <_>
      <rects>
        <_>
          15 2 7 9 -1.</_>
        <_>
          15 5 7 3 2.</_></rects>
      <tilted>0</tilted></_>
    <_>
      <rects>
        <_>
          15 10 3 6 -1.</_>
        <_>
          16 10 1 6 2.</_></rects>
      <tilted>0</tilted></_>
    <_>
      <rects>
        <_>
          16 21 8 6 -1.</_>
        <_>
          20 21 4 6 2.</_></rects>
      <tilted>0</tilted></_>
    <_>
      <rects>
        <_>
          17 7 6 19 -1.</_>
        <_>
          20 7 3 19 2.</_></rects>
      <tilted>0</tilted></_>
    <_>
      <rects>
        <_>
          17 12 5 3 -1.</_>
        <_>
          17 13 5 1 2.</_></rects>
      <tilted>0</tilted></_>
    <_>
      <rects>
        <_>
          18 0 3 1 -1.</_>
        <_>
          19 0 1 1 2.</_></rects>
      <tilted>0</tilted></_>
    <_>
      <rects>
        <_>
          18 14 6 15 -1.</_>
        <_>
          18 19 6 5 2.</_></rects>
      <tilted>0</tilted></_>
    <_>
      <rects>
        <_>
          18 27 3 5 -1.</_>
        <_>
          19 27 1 5 2.</_></rects>
      <tilted>0</tilted></_>
    <_>
      <rects>
        <_>
          19 0 3 2 -1.</_>
        <_>
          20 0 1 2 2.</_></rects>
      <tilted>0</tilted></_>
    <_>
      <rects>
        <_>
          19 29 3 3 -1.</_>
        <_>
          20 29 1 3 2.</_></rects>
      <tilted>0</tilted></_>
    <_>
      <rects>
        <_>
          20 0 3 19 -1.</_>
        <_>
          21 0 1 19 2.</_></rects>
      <tilted>0</tilted></_>
    <_>
      <rects>
        <_>
          21 0 3 4 -1.</_>
        <_>
          21 2 3 2 2.</_></rects>
      <tilted>0</tilted></_>
    <_>
      <rects>
        <_>
          21 3 3 3 -1.</_>
        <_>
          21 4 3 1 2.</_></rects>
      <tilted>0</tilted></_>
    <_>
      <rects>
        <_>
          21 13 3 4 -1.</_>
        <_>
          22 13 1 4 2.</_></rects>
      <tilted>0</tilted></_>
    <_>
      <rects>
        <_>
          21 14 1 3 -1.</_>
        <_>
          21 15 1 1 2.</_></rects>
      <tilted>0</tilted></_>
    <_>
      <rects>
        <_>
          22 13 2 11 -1.</_>
        <_>
          23 13 1 11 2.</_></rects>
      <tilted>0</tilted></_>
    <_>
      <rects>
        <_>
          23 12 1 3 -1.</_>
        <_>
          23 13 1 1 2.</_></rects>
      <tilted>0</tilted></_>
    <_>
      <rects>
        <_>
          23 12 1 6 -1.</_>
        <_>
          23 15 1 3 2.</_></rects>
      <tilted>0</tilted></_>
    <_>
      <rects>
        <_>
          23 23 1 9 -1.</_>
        <_>
          23 26 1 3 2.</_></rects>
      <tilted>0</tilted></_>
    <_>
      <rects>
        <_>
          23 26 1 3 -1.</_>
        <_>
          23 27 1 1 2.</_></rects>
      <tilted>0</tilted></_></features></cascade>
</opencv_storage>
