<?xml version="1.0"?>
<opencv_storage>
<stage11>
  <maxWeakCount>7</maxWeakCount>
  <stageThreshold>-5.8082699775695801e-01</stageThreshold>
  <weakClassifiers>
    <_>
      <internalNodes>
        0 -1 200502 1.1558137834072113e-02</internalNodes>
      <leafValues>
        -6.1783438920974731e-01 3.9917695522308350e-01</leafValues></_>
    <_>
      <internalNodes>
        0 -1 143983 -9.3493517488241196e-03</internalNodes>
      <leafValues>
        3.6472061276435852e-01 -6.9457238912582397e-01</leafValues></_>
    <_>
      <internalNodes>
        0 -1 26792 -3.5097230225801468e-02</internalNodes>
      <leafValues>
        2.5994512438774109e-01 -7.9117327928543091e-01</leafValues></_>
    <_>
      <internalNodes>
        0 -1 189762 -2.5034237653017044e-02</internalNodes>
      <leafValues>
        6.0425800085067749e-01 -4.6216565370559692e-01</leafValues></_>
    <_>
      <internalNodes>
        0 -1 185549 1.1028232984244823e-02</internalNodes>
      <leafValues>
        -6.4099347591400146e-01 3.3873167634010315e-01</leafValues></_>
    <_>
      <internalNodes>
        0 -1 59 -8.1702731549739838e-03</internalNodes>
      <leafValues>
        2.8711709380149841e-01 -7.8377217054367065e-01</leafValues></_>
    <_>
      <internalNodes>
        0 -1 265564 5.7201716117560863e-03</internalNodes>
      <leafValues>
        -6.2348359823226929e-01 3.5365486145019531e-01</leafValues></_></weakClassifiers></stage11>
</opencv_storage>
