<?xml version="1.0"?>
<opencv_storage>
<stage10>
  <maxWeakCount>5</maxWeakCount>
  <stageThreshold>-8.5509121417999268e-01</stageThreshold>
  <weakClassifiers>
    <_>
      <internalNodes>
        0 -1 108 -7.8716883435845375e-03</internalNodes>
      <leafValues>
        3.7857142090797424e-01 -8.8333332538604736e-01</leafValues></_>
    <_>
      <internalNodes>
        0 -1 143059 -6.5265838056802750e-03</internalNodes>
      <leafValues>
        -8.8680171966552734e-01 2.1189950406551361e-01</leafValues></_>
    <_>
      <internalNodes>
        0 -1 34745 -1.1381912976503372e-02</internalNodes>
      <leafValues>
        5.2866673469543457e-01 -5.3000122308731079e-01</leafValues></_>
    <_>
      <internalNodes>
        0 -1 142699 6.6243708133697510e-03</internalNodes>
      <leafValues>
        -5.5133855342864990e-01 4.5225900411605835e-01</leafValues></_>
    <_>
      <internalNodes>
        0 -1 204619 3.3433765172958374e-02</internalNodes>
      <leafValues>
        -3.6422237753868103e-01 8.0308252573013306e-01</leafValues></_></weakClassifiers></stage10>
</opencv_storage>
