<?xml version="1.0"?>
<opencv_storage>
<stage15>
  <maxWeakCount>7</maxWeakCount>
  <stageThreshold>-7.8888136148452759e-01</stageThreshold>
  <weakClassifiers>
    <_>
      <internalNodes>
        0 -1 88708 -1.2478243559598923e-02</internalNodes>
      <leafValues>
        7.3983740806579590e-01 -3.2851985096931458e-01</leafValues></_>
    <_>
      <internalNodes>
        0 -1 1428 -4.1598102450370789e-01</internalNodes>
      <leafValues>
        3.1881731748580933e-01 -6.8686151504516602e-01</leafValues></_>
    <_>
      <internalNodes>
        0 -1 3089 -5.8558393269777298e-02</internalNodes>
      <leafValues>
        2.4244233965873718e-01 -7.6178824901580811e-01</leafValues></_>
    <_>
      <internalNodes>
        0 -1 91027 -2.9497891664505005e-01</internalNodes>
      <leafValues>
        -7.5619429349899292e-01 2.5493836402893066e-01</leafValues></_>
    <_>
      <internalNodes>
        0 -1 219872 -8.0882920883595943e-04</internalNodes>
      <leafValues>
        4.9951457977294922e-01 -3.9372316002845764e-01</leafValues></_>
    <_>
      <internalNodes>
        0 -1 200275 2.7218325994908810e-03</internalNodes>
      <leafValues>
        -2.5330489873886108e-01 7.4472755193710327e-01</leafValues></_>
    <_>
      <internalNodes>
        0 -1 214291 6.0151964426040649e-03</internalNodes>
      <leafValues>
        -6.2333327531814575e-01 3.8289839029312134e-01</leafValues></_></weakClassifiers></stage15>
</opencv_storage>
