<?xml version="1.0"?>
<opencv_storage>
<stage6>
  <maxWeakCount>5</maxWeakCount>
  <stageThreshold>-9.6527391672134399e-01</stageThreshold>
  <weakClassifiers>
    <_>
      <internalNodes>
        0 -1 1448 -3.6390042304992676e-01</internalNodes>
      <leafValues>
        4.3873518705368042e-01 -7.5510203838348389e-01</leafValues></_>
    <_>
      <internalNodes>
        0 -1 107479 -2.3737717419862747e-02</internalNodes>
      <leafValues>
        8.1063508987426758e-01 -3.9171776175498962e-01</leafValues></_>
    <_>
      <internalNodes>
        0 -1 158808 4.9001378938555717e-03</internalNodes>
      <leafValues>
        -6.0164290666580200e-01 5.0952106714248657e-01</leafValues></_>
    <_>
      <internalNodes>
        0 -1 62209 -7.2864154353737831e-03</internalNodes>
      <leafValues>
        4.4264942407608032e-01 -6.3726472854614258e-01</leafValues></_>
    <_>
      <internalNodes>
        0 -1 23623 -3.9511226117610931e-02</internalNodes>
      <leafValues>
        -8.6235386133193970e-01 3.4053936600685120e-01</leafValues></_></weakClassifiers></stage6>
</opencv_storage>
