<?xml version="1.0"?>
<opencv_storage>
<stage12>
  <maxWeakCount>7</maxWeakCount>
  <stageThreshold>-7.1465682983398438e-01</stageThreshold>
  <weakClassifiers>
    <_>
      <internalNodes>
        0 -1 284831 -1.1150617152452469e-02</internalNodes>
      <leafValues>
        -6.9343066215515137e-01 3.6121672391891479e-01</leafValues></_>
    <_>
      <internalNodes>
        0 -1 279449 -5.1401086151599884e-02</internalNodes>
      <leafValues>
        1.9816508889198303e-01 -8.7007027864456177e-01</leafValues></_>
    <_>
      <internalNodes>
        0 -1 127821 -3.5875506699085236e-02</internalNodes>
      <leafValues>
        7.8265488147735596e-01 -2.7982610464096069e-01</leafValues></_>
    <_>
      <internalNodes>
        0 -1 29651 -1.0975634213536978e-03</internalNodes>
      <leafValues>
        -4.6318119764328003e-01 4.4211575388908386e-01</leafValues></_>
    <_>
      <internalNodes>
        0 -1 40893 -6.9325868971645832e-03</internalNodes>
      <leafValues>
        1.8930988013744354e-01 -9.0254461765289307e-01</leafValues></_>
    <_>
      <internalNodes>
        0 -1 273480 -7.8309267759323120e-02</internalNodes>
      <leafValues>
        -7.6600879430770874e-01 2.1994192898273468e-01</leafValues></_>
    <_>
      <internalNodes>
        0 -1 283729 -8.2313623279333115e-03</internalNodes>
      <leafValues>
        1.9501799345016479e-01 -8.8741111755371094e-01</leafValues></_></weakClassifiers></stage12>
</opencv_storage>
