<?xml version="1.0"?>
<opencv_storage>
<stage5>
  <maxWeakCount>6</maxWeakCount>
  <stageThreshold>-1.3832488059997559e+00</stageThreshold>
  <weakClassifiers>
    <_>
      <internalNodes>
        0 -1 2083 -1.6157472506165504e-02</internalNodes>
      <leafValues>
        6.5217393636703491e-01 -5.5555558204650879e-01</leafValues></_>
    <_>
      <internalNodes>
        0 -1 224898 6.1176074668765068e-03</internalNodes>
      <leafValues>
        -6.7367660999298096e-01 4.5460081100463867e-01</leafValues></_>
    <_>
      <internalNodes>
        0 -1 16254 -2.5776833295822144e-02</internalNodes>
      <leafValues>
        -8.7458115816116333e-01 3.6524498462677002e-01</leafValues></_>
    <_>
      <internalNodes>
        0 -1 38452 -8.4497686475515366e-03</internalNodes>
      <leafValues>
        3.4689128398895264e-01 -6.8502515554428101e-01</leafValues></_>
    <_>
      <internalNodes>
        0 -1 1980 2.6881206780672073e-02</internalNodes>
      <leafValues>
        -3.3490622043609619e-01 9.3827062845230103e-01</leafValues></_>
    <_>
      <internalNodes>
        0 -1 221568 2.4649384431540966e-03</internalNodes>
      <leafValues>
        -6.2852561473846436e-01 5.0066965818405151e-01</leafValues></_></weakClassifiers></stage5>
</opencv_storage>
